{"learner":{"attributes":{"best_iteration":"149","best_score":"0.3388919768048854","scikit_learn":"{\"_estimator_type\": \"classifier\"}"},"feature_names":["Have_IP","Have_At","URL_Length","URL_Depth","Redirection","https_Domain","TinyURL","Prefix/Suffix","DNS_Record","Web_Traffic","Domain_Age","Domain_End","iFrame","Mouse_Over","Right_Click","Web_Forwards"],"feature_types":["int","int","int","int","int","int","int","int","int","int","int","int","int","int","int","int"],"gradient_booster":{"model":{"gbtree_model_param":{"num_parallel_tree":"1","num_trees":"150"},"iteration_indptr":[0,1,2,3,4,5,6,7,8,9,10,11,12,13,14,15,16,17,18,19,20,21,22,23,24,25,26,27,28,29,30,31,32,33,34,35,36,37,38,39,40,41,42,43,44,45,46,47,48,49,50,51,52,53,54,55,56,57,58,59,60,61,62,63,64,65,66,67,68,69,70,71,72,73,74,75,76,77,78,79,80,81,82,83,84,85,86,87,88,89,90,91,92,93,94,95,96,97,98,99,100,101,102,103,104,105,106,107,108,109,110,111,112,113,114,115,116,117,118,119,120,121,122,123,124,125,126,127,128,129,130,131,132,133,134,135,136,137,138,139,140,141,142,143,144,145,146,147,148,149,150],"tree_info":[0,0,0,0,0,0,0,0,0,0,0,0,0,0,0,0,0,0,0,0,0,0,0,0,0,0,0,0,0,0,0,0,0,0,0,0,0,0,0,0,0,0,0,0,0,0,0,0,0,0,0,0,0,0,0,0,0,0,0,0,0,0,0,0,0,0,0,0,0,0,0,0,0,0,0,0,0,0,0,0,0,0,0,0,0,0,0,0,0,0,0,0,0,0,0,0,0,0,0,0,0,0,0,0,0,0,0,0,0,0,0,0,0,0,0,0,0,0,0,0,0,0,0,0,0,0,0,0,0,0,0,0,0,0,0,0,0,0,0,0,0,0,0,0,0,0,0,0,0,0],"trees":[{"base_weights":[1.094234E-2,-1.8971364E-1,1.8358265E-1,1.8708111E-1,-2.9977125E-1,-3.4496894E-1,1.402632E0,2.3078218E-1,-4.5970455E-1,6.8292373E-1,1.8531218E-1,4.4975083E-2,-2.0331158E-3,-5.4572847E-2,4.702581E-2,1.5742217E-1,2.5539337E-2],"categories":[],"categories_nodes":[],"categories_segments":[],"categories_sizes":[],"default_left":[0,0,0,0,0,0,0,0,0,0,0,0,0,0,0,0,0],"id":0,"left_children":[1,3,-1,-1,5,7,9,11,13,15,-1,-1,-1,-1,-1,-1,-1],"loss_changes":[5.840243E2,3.2643555E2,0E0,0E0,1.0551246E2,8.7997025E1,1.0244217E1,1.2202168E1,8.903471E1,5.409024E0,0E0,0E0,0E0,0E0,0E0,0E0,0E0],"parents":[2147483647,0,0,1,1,4,4,5,5,6,6,7,7,8,8,9,9],"right_children":[2,4,-1,-1,6,8,10,12,14,16,-1,-1,-1,-1,-1,-1,-1],"split_conditions":[1E0,1E0,1.8358265E-1,1.8708111E-1,1E0,2E0,3E0,1E0,1E0,2E0,1.8531218E-1,4.4975083E-2,-2.0331158E-3,-5.4572847E-2,4.702581E-2,1.5742217E-1,2.5539337E-2],"split_indices":[7,3,0,0,1,3,3,10,12,3,0,0,0,0,0,0,0],"split_type":[0,0,0,0,0,0,0,0,0,0,0,0,0,0,0,0,0],"sum_hessian":[1.5929857E3,1.435987E3,1.5699858E2,7.199935E1,1.3639877E3,1.329488E3,3.449969E1,2.2074802E2,1.10874E3,1.4249872E1,2.0249817E1,1.1749894E2,1.0324907E2,1.01524084E3,9.349916E1,3.7499661E0,1.0499906E1],"tree_param":{"num_deleted":"0","num_feature":"16","num_nodes":"17","size_leaf_vector":"1"}},{"base_weights":[1.8302777E-3,-1.7666076E-1,1.6794282E-1,-2.1335863E-1,1.2496872E0,2.7215648E-1,-2.95955E-1,9.7767043E-1,1.6458106E-1,6.7470384E-1,-2.7456048E-1,-3.6324933E-1,4.0208128E-1,1.6328745E-1,6.024671E-1,5.849837E-2,1.7745636E-1,-4.3419622E-2,7.2770566E-2,-2.9991169E-2,-1.4859593E-1,1.6089289E-1,-5.6803664E-3,1.5130524E-1,2.0554656E-2],"categories":[],"categories_nodes":[],"categories_segments":[],"categories_sizes":[],"default_left":[0,0,0,0,0,0,0,0,0,0,0,0,0,0,0,0,0,0,0,0,0,0,0,0,0],"id":1,"left_children":[1,3,-1,5,7,9,11,13,-1,15,17,19,21,-1,23,-1,-1,-1,-1,-1,-1,-1,-1,-1,-1],"loss_changes":[4.8066635E2,7.6211334E1,0E0,5.6838234E1,2.328045E0,4.558632E1,5.6986656E1,4.9472656E0,0E0,1.0714813E1,1.4426516E1,7.807202E1,5.927766E1,0E0,5.806448E0,0E0,0E0,0E0,0E0,0E0,0E0,0E0,0E0,0E0,0E0],"parents":[2147483647,0,0,1,1,3,3,4,4,5,5,6,6,7,7,9,9,10,10,11,11,12,12,14,14],"right_children":[2,4,-1,6,8,10,12,14,-1,16,18,20,22,-1,24,-1,-1,-1,-1,-1,-1,-1,-1,-1,-1],"split_conditions":[1E0,1E0,1.6794282E-1,1E0,1E0,1E0,1E0,1E0,1.6458106E-1,1E0,1E0,1E0,1E0,1.6328745E-1,1E0,5.849837E-2,1.7745636E-1,-4.3419622E-2,7.2770566E-2,-2.9991169E-2,-1.4859593E-1,1.6089289E-1,-5.6803664E-3,1.5130524E-1,2.0554656E-2],"split_indices":[7,1,0,9,10,10,12,11,0,6,8,15,15,0,9,0,0,0,0,0,0,0,0,0,0],"split_type":[0,0,0,0,0,0,0,0,0,0,0,0,0,0,0,0,0,0,0,0,0,0,0,0,0],"sum_hessian":[1.6032471E3,1.4498793E3,1.533678E2,1.4143407E3,3.5538517E1,2.0529398E2,1.2090468E3,2.3126036E1,1.241248E1,1.1810167E2,8.71923E1,1.1031746E3,1.0587219E2,7.2003508E0,1.5925685E1,1.1061057E2,7.491097E0,7.5701706E1,1.1490589E1,1.045462E3,5.771259E1,2.8475828E1,7.739636E1,3.9809377E0,1.1944747E1],"tree_param":{"num_deleted":"0","num_feature":"16","num_nodes":"25","size_leaf_vector":"1"}},{"base_weights":[1.6199268E-2,-1.4681496E-1,1.5506575E-1,1.6880743E-1,-2.4574782E-1,-2.79877E-1,1.2112967E0,1.8574856E-1,-3.761107E-1,6.311034E-1,1.580339E0,3.92075E-2,-5.9778257E-3,-5.3003408E-2,5.960291E-3,1.3585693E-1,2.6240775E-2,1.626505E-1,5.0914235E-2],"categories":[],"categories_nodes":[],"categories_segments":[],"categories_sizes":[],"default_left":[0,0,0,0,0,0,0,0,0,0,0,0,0,0,0,0,0,0,0],"id":2,"left_children":[1,3,-1,-1,5,7,9,11,13,15,17,-1,-1,-1,-1,-1,-1,-1,-1],"loss_changes":[3.9748883E2,2.61195E2,0E0,0E0,6.8164734E1,5.9824097E1,5.726921E0,1.1628007E1,7.417107E1,3.3647976E0,8.825302E-2,0E0,0E0,0E0,0E0,0E0,0E0,0E0,0E0],"parents":[2147483647,0,0,1,1,4,4,5,5,6,6,7,7,8,8,9,9,10,10],"right_children":[2,4,-1,-1,6,8,10,12,14,16,18,-1,-1,-1,-1,-1,-1,-1,-1],"split_conditions":[1E0,1E0,1.5506575E-1,1.6880743E-1,1E0,2E0,3E0,1E0,5E0,2E0,8E0,3.92075E-2,-5.9778257E-3,-5.3003408E-2,5.960291E-3,1.3585693E-1,2.6240775E-2,1.626505E-1,5.0914235E-2],"split_indices":[7,3,0,0,1,3,3,10,3,3,3,0,0,0,0,0,0,0,0],"split_type":[0,0,0,0,0,0,0,0,0,0,0,0,0,0,0,0,0,0,0],"sum_hessian":[1.5871647E3,1.4355612E3,1.5160352E2,7.262045E1,1.3629408E3,1.3325359E3,3.0404844E1,2.2807372E2,1.1044622E3,1.2874382E1,1.7530462E1,1.2360577E2,1.0446795E2,8.159849E2,2.884773E2,3.427282E0,9.4471E0,1.630918E1,1.2212847E0],"tree_param":{"num_deleted":"0","num_feature":"16","num_nodes":"19","size_leaf_vector":"1"}},{"base_weights":[-1.5772948E-2,-1.6211414E-1,1.455097E-1,1.5926446E-1,-2.4946944E-1,-2.8569013E-1,1.186138E0,2.0772448E-1,-3.866887E-1,7.387788E-1,1.4911705E-1,4.122158E-2,-4.1590687E-3,-5.3174447E-2,3.8887446E-3,1.3175218E-1,4.4235677E-2],"categories":[],"categories_nodes":[],"categories_segments":[],"categories_sizes":[],"default_left":[0,0,0,0,0,0,0,0,0,0,0,0,0,0,0,0,0],"id":3,"left_children":[1,3,-1,-1,5,7,9,11,13,15,-1,-1,-1,-1,-1,-1,-1],"loss_changes":[3.4063483E2,2.2101135E2,0E0,0E0,7.167234E1,6.680227E1,3.5316849E0,1.1648541E1,6.8650604E1,2.1186905E0,0E0,0E0,0E0,0E0,0E0,0E0,0E0],"parents":[2147483647,0,0,1,1,4,4,5,5,6,6,7,7,8,8,9,9],"right_children":[2,4,-1,-1,6,8,10,12,14,16,-1,-1,-1,-1,-1,-1,-1],"split_conditions":[1E0,1E0,1.455097E-1,1.5926446E-1,1E0,2E0,3E0,1E0,5E0,2E0,1.4911705E-1,4.122158E-2,-4.1590687E-3,-5.3174447E-2,3.8887446E-3,1.3175218E-1,4.4235677E-2],"split_indices":[7,3,0,0,1,3,3,10,3,3,0,0,0,0,0,0,0],"split_type":[0,0,0,0,0,0,0,0,0,0,0,0,0,0,0,0,0],"sum_hessian":[1.5804203E3,1.4382177E3,1.4220274E2,6.738488E1,1.3708328E3,1.3378788E3,3.295396E1,2.271436E2,1.1107351E3,1.4747427E1,1.8206533E1,1.2443067E2,1.0271292E2,8.28198E2,2.8253714E2,3.8282645E0,1.0919163E1],"tree_param":{"num_deleted":"0","num_feature":"16","num_nodes":"17","size_leaf_vector":"1"}},{"base_weights":[1.13703834E-4,-1.2892227E-1,1.3602372E0,1.4435518E-1,-2.0591521E-1,1.4746533E-1,1.1697305E0,-2.6137906E-1,3.7693214E-1,8.3651024E-1,1.4644305E-1,2.0100045E-1,-3.5059845E-1,3.659291E-2,1.3189539E0,5.536907E-1,1.2766717E-1,1.0268557E-2,1.6982272E-1,-2.9553024E-2,-1.3229778E-1,-2.123851E-2,4.3374997E-2,1.6859955E-1,3.8367603E-2,1.0807314E-1,4.112364E-2],"categories":[],"categories_nodes":[],"categories_segments":[],"categories_sizes":[],"default_left":[0,0,0,0,0,0,0,0,0,0,0,0,0,0,0,0,0,0,0,0,0,0,0,0,0,0,0],"id":4,"left_children":[1,3,5,-1,7,-1,9,11,13,15,-1,17,19,21,23,25,-1,-1,-1,-1,-1,-1,-1,-1,-1,-1,-1],"loss_changes":[2.765485E2,1.7453964E2,1.2511749E0,0E0,4.4479946E1,0E0,4.2809677E0,5.180983E1,3.832909E1,2.8592682E0,0E0,2.9780283E1,5.5924255E1,8.888956E0,1.0249187E1,9.975748E-1,0E0,0E0,0E0,0E0,0E0,0E0,0E0,0E0,0E0,0E0,0E0],"parents":[2147483647,0,0,1,1,2,2,4,4,6,6,7,7,8,8,9,9,11,11,12,12,13,13,14,14,15,15],"right_children":[2,4,6,-1,8,-1,10,12,14,16,-1,18,20,22,24,26,-1,-1,-1,-1,-1,-1,-1,-1,-1,-1,-1],"split_conditions":[1E0,1E0,3E0,1.4435518E-1,1E0,1.4746533E-1,1E0,2E0,5E0,5E0,1.4644305E-1,1E0,1E0,1E0,1E0,1E0,1.2766717E-1,1.0268557E-2,1.6982272E-1,-2.9553024E-2,-1.3229778E-1,-2.123851E-2,4.3374997E-2,1.6859955E-1,3.8367603E-2,1.0807314E-1,4.112364E-2],"split_indices":[7,3,3,0,12,0,10,3,3,3,0,8,15,10,13,9,0,0,0,0,0,0,0,0,0,0,0],"split_type":[0,0,0,0,0,0,0,0,0,0,0,0,0,0,0,0,0,0,0,0,0,0,0,0,0,0,0],"sum_hessian":[1.573732E3,1.4381946E3,1.3553743E2,6.630279E1,1.3718917E3,8.046832E1,5.5069103E1,1.2531896E3,1.187022E2,2.7646938E1,2.7422167E1,2.0249684E2,1.0506927E3,8.796171E1,3.074049E1,1.820652E1,9.440418E0,1.9102203E2,1.1474813E1,9.956127E2,5.5080074E1,5.4353012E1,3.36087E1,2.150024E1,9.24025E0,2.4724903E0,1.573403E1],"tree_param":{"num_deleted":"0","num_feature":"16","num_nodes":"27","size_leaf_vector":"1"}},{"base_weights":[8.559398E-3,1.8712125E0,-5.3219515E-1,1.4807379E-1,2.003888E0,-6.523532E-1,1.1866207E0,2.06546E0,1.3996853E-1,-9.0693605E-1,7.937136E-2,1.0463264E0,1.3713036E-1,1.8991964E-1,2.1867143E-1,-9.542273E-1,8.552502E-1,1.5540086E-1,-9.3117E-2,1.264157E-1,6.816512E-1,-9.599502E-2,1.3157885E-1,3.5098705E-2,1.3949731E-1,-2.4037885E-2,1.22287765E-1,2.4059454E-2,1.0616155E-1],"categories":[],"categories_nodes":[],"categories_segments":[],"categories_sizes":[],"default_left":[0,0,0,0,0,0,0,0,0,0,0,0,0,0,0,0,0,0,0,0,0,0,0,0,0,0,0,0,0],"id":5,"left_children":[1,3,5,-1,7,9,11,13,-1,15,17,19,-1,-1,-1,21,23,-1,25,-1,27,-1,-1,-1,-1,-1,-1,-1,-1],"loss_changes":[1.5776324E3,1.5289551E1,2.514801E2,0E0,6.7891846E0,2.1154758E2,6.294327E-1,5.6518555E-1,0E0,7.100897E1,7.491099E1,3.0701256E0,0E0,0E0,0E0,1.1925232E1,5.6451397E0,0E0,5.147603E1,0E0,3.2101688E0,0E0,0E0,0E0,0E0,0E0,0E0,0E0,0E0],"parents":[2147483647,0,0,1,1,2,2,4,4,5,5,6,6,7,7,9,9,10,10,11,11,15,15,16,16,18,18,20,20],"right_children":[2,4,6,-1,8,10,12,14,-1,16,18,20,-1,-1,-1,22,24,-1,26,-1,28,-1,-1,-1,-1,-1,-1,-1,-1],"split_conditions":[1E0,1E0,1E0,1.4807379E-1,1E0,5E0,5E0,2E0,1.3996853E-1,1E0,1E0,3E0,1.3713036E-1,1.8991964E-1,2.1867143E-1,1E0,3E0,1.5540086E-1,1E0,1.264157E-1,4E0,-9.599502E-2,1.3157885E-1,3.5098705E-2,1.3949731E-1,-2.4037885E-2,1.22287765E-1,2.4059454E-2,1.0616155E-1],"split_indices":[2,3,7,0,7,3,3,3,0,1,9,3,0,0,0,0,3,0,12,0,3,0,0,0,0,0,0,0,0],"split_type":[0,0,0,0,0,0,0,0,0,0,0,0,0,0,0,0,0,0,0,0,0,0,0,0,0,0,0,0,0],"sum_hessian":[1.5643066E3,3.514075E2,1.212899E3,9.220403E1,2.592035E2,1.1342285E3,7.867058E1,2.3303696E2,2.6166515E1,8.4128705E2,2.9294144E2,4.8496094E1,3.0174486E1,1.053053E2,1.2773167E2,8.197463E2,2.1540802E1,2.9838326E1,2.6310312E2,2.8816608E1,1.9679485E1,8.1826056E2,1.4857435E0,1.1989407E1,9.551395E0,2.3735954E2,2.5743563E1,9.863404E0,9.816082E0],"tree_param":{"num_deleted":"0","num_feature":"16","num_nodes":"29","size_leaf_vector":"1"}},{"base_weights":[1.6484814E-2,1.7317917E0,-4.8902613E-1,1.4116016E-1,1.8298768E0,-5.993308E-1,1.1165338E0,1.8688749E-1,1.3314709E-1,-8.3766943E-1,6.5542296E-2,9.5553195E-1,1.2951672E-1,-8.784339E-1,8.168705E-1,1.7093405E-1,-1.0133934E0,1.1701565E-1,7.5243944E-1,-7.4795805E-2,-1.0230344E-1,3.464929E-2,1.3134794E-1,2.8551245E-2,-8.3021365E-2,-1.22979715E-1,1.084132E-1,4.1490346E-2,1.1747303E-1],"categories":[],"categories_nodes":[],"categories_segments":[],"categories_sizes":[],"default_left":[0,0,0,0,0,0,0,0,0,0,0,0,0,0,0,0,0,0,0,0,0,0,0,0,0,0,0,0,0],"id":6,"left_children":[1,3,5,-1,7,9,11,-1,-1,13,15,17,-1,19,21,23,25,-1,27,-1,-1,-1,-1,-1,-1,-1,-1,-1,-1],"loss_changes":[1.3321239E3,8.399414E0,2.1081989E2,0E0,2.649109E0,1.7610715E2,9.6635437E-1,0E0,0E0,5.588147E1,3.361484E1,1.0425797E0,0E0,1.4303894E1,4.2599316E0,3.1068527E1,1.3278095E1,0E0,3.1429586E0,0E0,0E0,0E0,0E0,0E0,0E0,0E0,0E0,0E0,0E0],"parents":[2147483647,0,0,1,1,2,2,4,4,5,5,6,6,9,9,10,10,11,11,13,13,14,14,15,15,16,16,18,18],"right_children":[2,4,6,-1,8,10,12,-1,-1,14,16,18,-1,20,22,24,26,-1,28,-1,-1,-1,-1,-1,-1,-1,-1,-1,-1],"split_conditions":[1E0,1E0,1E0,1.4116016E-1,1E0,5E0,1E0,1.8688749E-1,1.3314709E-1,1E0,1E1,3E0,1.2951672E-1,1E0,3E0,1E0,1E0,1.1701565E-1,5E0,-7.4795805E-2,-1.0230344E-1,3.464929E-2,1.3134794E-1,2.8551245E-2,-8.3021365E-2,-1.22979715E-1,1.084132E-1,4.1490346E-2,1.1747303E-1],"split_indices":[2,3,7,0,7,3,10,0,0,1,3,3,0,10,3,15,10,0,3,0,0,0,0,0,0,0,0,0,0],"split_type":[0,0,0,0,0,0,0,0,0,0,0,0,0,0,0,0,0,0,0,0,0,0,0,0,0,0,0,0,0],"sum_hessian":[1.5343099E3,3.4869324E2,1.1856167E3,8.537749E1,2.6331577E2,1.1099855E3,7.563115E1,2.4165744E2,2.1658325E1,8.168923E2,2.9309323E2,4.3118076E1,3.2513077E1,7.977075E2,1.91848E1,2.6777795E2,2.5315302E1,1.8648737E1,2.4469337E1,4.225788E2,3.751287E2,1.0724497E1,8.460301E0,2.4092015E2,2.6857786E1,2.3322763E1,1.9925394E0,1.4701208E1,9.768129E0],"tree_param":{"num_deleted":"0","num_feature":"16","num_nodes":"29","size_leaf_vector":"1"}},{"base_weights":[1.2720647E-2,1.6148169E0,-4.341284E-1,1.3546346E-1,1.6890815E0,-5.2903956E-1,1.0557004E0,1.7191635E-1,1.282109E-1,-7.453951E-1,6.884049E-2,8.836593E-1,1.242448E-1,-7.8794855E-1,7.634208E-1,1.3492382E-1,-7.407207E-2,1.1047101E-1,6.83233E-1,-1.06826305E-1,-7.330101E-2,4.0040083E-2,1.3309942E-1,2.8669168E-3,-1.09230295E-1,7.251662E-3,9.839951E-2],"categories":[],"categories_nodes":[],"categories_segments":[],"categories_sizes":[],"default_left":[0,0,0,0,0,0,0,0,0,0,0,0,0,0,0,0,0,0,0,0,0,0,0,0,0,0,0],"id":7,"left_children":[1,3,5,-1,7,9,11,-1,-1,13,15,17,-1,19,21,-1,23,-1,25,-1,-1,-1,-1,-1,-1,-1,-1],"loss_changes":[1.0874045E3,4.112671E0,1.6850145E2,0E0,9.0112305E-1,1.445712E2,1.1981964E0,0E0,0E0,5.3279022E1,5.4589832E1,1.0466709E0,0E0,1.15130005E1,4.2086E0,0E0,2.815493E1,0E0,4.327093E0,0E0,0E0,0E0,0E0,0E0,0E0,0E0,0E0],"parents":[2147483647,0,0,1,1,2,2,4,4,5,5,6,6,9,9,10,10,11,11,13,13,14,14,16,16,18,18],"right_children":[2,4,6,-1,8,10,12,-1,-1,14,16,18,-1,20,22,-1,24,-1,26,-1,-1,-1,-1,-1,-1,-1,-1],"split_conditions":[1E0,1E0,1E0,1.3546346E-1,1E0,5E0,1E0,1.7191635E-1,1.282109E-1,1E0,1E0,3E0,1.242448E-1,2E0,1E0,1.3492382E-1,1E1,1.1047101E-1,4E0,-1.06826305E-1,-7.330101E-2,4.0040083E-2,1.3309942E-1,2.8669168E-3,-1.09230295E-1,7.251662E-3,9.839951E-2],"split_indices":[2,3,7,0,7,3,10,0,0,1,9,3,0,3,10,0,3,0,3,0,0,0,0,0,0,0,0],"split_type":[0,0,0,0,0,0,0,0,0,0,0,0,0,0,0,0,0,0,0,0,0,0,0,0,0,0,0],"sum_hessian":[1.5169645E3,3.302607E2,1.1867037E3,7.7607475E1,2.5265324E2,1.1162374E3,7.046622E1,2.322611E2,2.0392157E1,8.19454E2,2.967835E2,3.9660667E1,3.0805544E1,7.9744135E2,2.2012625E1,2.8952059E1,2.6783145E2,1.6714449E1,2.2946218E1,1.27655594E2,6.6978577E2,1.4465774E1,7.546851E0,2.4416647E2,2.3664968E1,7.9811335E0,1.4965086E1],"tree_param":{"num_deleted":"0","num_feature":"16","num_nodes":"27","size_leaf_vector":"1"}},{"base_weights":[1.30164E-2,1.2496536E-1,-6.178203E-2,-4.287525E-2,-9.946318E-1,-1.3187924E-1,2.881019E-1,7.3485464E-2,-1.2001116E0,3.2038577E-2,-3.2174683E-1,3.9227816E-1,-7.266922E-1,-1.3562857E-1,4.1636106E-2,2.1397308E-2,-1.7628638E-2,8.4289365E-2,-4.735528E-2,2.7019322E-2,1.4267801E-1,-1.22568905E-1,2.4916936E-2],"categories":[],"categories_nodes":[],"categories_segments":[],"categories_sizes":[],"default_left":[0,0,0,0,0,0,0,0,0,0,0,0,0,0,0,0,0,0,0,0,0,0,0],"id":8,"left_children":[1,-1,3,5,7,9,11,-1,13,15,17,19,21,-1,-1,-1,-1,-1,-1,-1,-1,-1,-1],"loss_changes":[1.3777713E2,0E0,2.4732616E1,4.0627323E1,1.0782595E1,3.382643E1,3.1187841E1,0E0,6.946953E0,2.2173304E1,8.942004E1,3.3177906E1,1.3728284E1,0E0,0E0,0E0,0E0,0E0,0E0,0E0,0E0,0E0,0E0],"parents":[2147483647,0,0,2,2,3,3,4,4,5,5,6,6,8,8,9,9,10,10,11,11,12,12],"right_children":[2,-1,4,6,8,10,12,-1,14,16,18,20,22,-1,-1,-1,-1,-1,-1,-1,-1,-1,-1],"split_conditions":[1E0,1.2496536E-1,1E1,5E0,1E0,3E0,1E0,7.3485464E-2,1E0,1E0,1E0,1E0,1E0,-1.3562857E-1,4.1636106E-2,2.1397308E-2,-1.7628638E-2,8.4289365E-2,-4.735528E-2,2.7019322E-2,1.4267801E-1,-1.22568905E-1,2.4916936E-2],"split_indices":[3,0,3,3,11,3,15,0,10,10,11,6,12,0,0,0,0,0,0,0,0,0,0],"split_type":[0,0,0,0,0,0,0,0,0,0,0,0,0,0,0,0,0,0,0,0,0,0,0],"sum_hessian":[1.4876719E3,8.395431E1,1.4037175E3,1.3768577E3,2.6859863E1,1.0855428E3,2.913148E2,2.5787456E0,2.4281118E1,5.8302924E2,5.025136E2,2.647497E2,2.656511E1,2.2288677E1,1.9924396E0,3.112132E2,2.7181604E2,5.742237E1,4.4509125E2,2.3793176E2,2.6817926E1,1.74078E1,9.157309E0],"tree_param":{"num_deleted":"0","num_feature":"16","num_nodes":"23","size_leaf_vector":"1"}},{"base_weights":[-1.9621702E-3,1.5199654E0,-4.023816E-1,1.2668173E-1,1.5822951E-1,-6.020238E-1,1.340036E-1,-6.436787E-1,8.497736E-1,1.2512858E-1,-5.922681E-3,-6.641306E-1,4.111576E-1,4.3333858E-1,1.2654462E-1,-1.15945205E-1,1.013312E0,5.2114166E-2,-6.777907E-2,-3.18812E-2,1.5122484E-1,1.1776526E-1,1.3530979E-2,-2.146973E-2,7.332285E-2,1.3173872E-1,-1.12725556E-1],"categories":[],"categories_nodes":[],"categories_segments":[],"categories_sizes":[],"default_left":[0,0,0,0,0,0,0,0,0,0,0,0,0,0,0,0,0,0,0,0,0,0,0,0,0,0,0],"id":9,"left_children":[1,3,5,-1,-1,7,9,11,13,-1,15,17,19,21,-1,23,25,-1,-1,-1,-1,-1,-1,-1,-1,-1,-1],"loss_changes":[8.9793463E2,2.8381958E0,1.24998795E2,0E0,0E0,5.1968445E1,4.960242E1,1.8117554E1,3.6315498E0,0E0,3.1843666E1,1.349707E1,1.3623639E1,2.8538103E0,0E0,2.1646095E1,1.9493444E1,0E0,0E0,0E0,0E0,0E0,0E0,0E0,0E0,0E0,0E0],"parents":[2147483647,0,0,1,1,2,2,5,5,6,6,7,7,8,8,10,10,11,11,12,12,13,13,15,15,16,16],"right_children":[2,4,6,-1,-1,8,10,12,14,-1,16,18,20,22,-1,24,26,-1,-1,-1,-1,-1,-1,-1,-1,-1,-1],"split_conditions":[1E0,1E0,5E0,1.2668173E-1,1.5822951E-1,1E0,1E0,1E0,3E0,1.2512858E-1,1E0,1E0,2E0,1E0,1.2654462E-1,1E0,1E0,5.2114166E-2,-6.777907E-2,-3.18812E-2,1.5122484E-1,1.1776526E-1,1.3530979E-2,-2.146973E-2,7.332285E-2,1.3173872E-1,-1.12725556E-1],"split_indices":[2,3,3,0,0,1,9,4,3,0,12,3,3,9,0,6,6,0,0,0,0,0,0,0,0,0,0],"split_type":[0,0,0,0,0,0,0,0,0,0,0,0,0,0,0,0,0,0,0,0,0,0,0,0,0,0,0],"sum_hessian":[1.4714469E3,3.0591583E2,1.1655311E3,6.465353E1,2.4126231E2,8.492999E2,3.162312E2,8.261526E2,2.3147316E1,3.4312286E1,2.819189E2,8.108026E2,1.5349995E1,1.2583369E1,1.0563947E1,2.552517E2,2.6667212E1,8.814638E0,8.01988E2,9.657801E0,5.6921945E0,2.7539716E0,9.829397E0,2.2932965E2,2.5922035E1,2.3686956E1,2.9802551E0],"tree_param":{"num_deleted":"0","num_feature":"16","num_nodes":"27","size_leaf_vector":"1"}},{"base_weights":[1.3139929E-2,1.4433621E0,-3.57474E-1,1.4750324E-1,1.2107515E-1,-4.4496885E-1,9.979755E-1,-4.7805697E-1,8.0345666E-1,7.990681E-1,1.2167235E-1,-4.2782944E-1,-9.147991E-1,5.150146E-1,1.21437036E-1,1.1992749E-1,6.4484745E-1,-4.69278E-2,7.120945E-2,1.370316E-1,-1.0121763E-1,1.2028575E-1,2.0405954E-2,1.083974E-1,5.3700723E-2],"categories":[],"categories_nodes":[],"categories_segments":[],"categories_sizes":[],"default_left":[0,0,0,0,0,0,0,0,0,0,0,0,0,0,0,0,0,0,0,0,0,0,0,0,0],"id":10,"left_children":[1,3,5,-1,-1,7,9,11,13,15,-1,17,19,21,-1,-1,23,-1,-1,-1,-1,-1,-1,-1,-1],"loss_changes":[7.5722833E2,3.798828E-1,1.3500146E2,0E0,0E0,4.4438797E1,2.034607E0,2.2413376E1,2.6825352E0,1.6403866E0,0E0,4.4475067E1,2.5051155E1,3.6333776E0,0E0,0E0,8.57152E-1,0E0,0E0,0E0,0E0,0E0,0E0,0E0,0E0],"parents":[2147483647,0,0,1,1,2,2,5,5,6,6,7,7,8,8,9,9,11,11,12,12,13,13,16,16],"right_children":[2,4,6,-1,-1,8,10,12,14,16,-1,18,20,22,-1,-1,24,-1,-1,-1,-1,-1,-1,-1,-1],"split_conditions":[1E0,1E0,1E0,1.4750324E-1,1.2107515E-1,1E0,1E0,1E0,1E0,1E0,1.2167235E-1,1E0,1E0,1E0,1.21437036E-1,1.1992749E-1,1E0,-4.69278E-2,7.120945E-2,1.370316E-1,-1.0121763E-1,1.2028575E-1,2.0405954E-2,1.083974E-1,5.3700723E-2],"split_indices":[2,7,7,0,0,1,10,15,10,9,0,12,9,9,0,0,11,0,0,0,0,0,0,0,0],"split_type":[0,0,0,0,0,0,0,0,0,0,0,0,0,0,0,0,0,0,0,0,0,0,0,0,0],"sum_hessian":[1.4265968E3,2.929994E2,1.1335974E3,2.5318637E2,3.9813038E1,1.0654912E3,6.810619E1,1.0385818E3,2.6909378E1,3.8107742E1,2.9998447E1,9.3323474E2,1.0534708E2,1.7134857E1,9.774522E0,8.7151985E0,2.9392544E1,9.010598E2,3.2174923E1,3.7714562E0,1.01575615E2,4.4416075E0,1.269325E1,4.0104194E0,2.5382126E1],"tree_param":{"num_deleted":"0","num_feature":"16","num_nodes":"25","size_leaf_vector":"1"}},{"base_weights":[-7.316485E-3,1.3829736E0,-3.512756E-1,1.2001367E-1,1.4290468E-1,-4.3090385E-1,9.5976126E-1,-6.104942E-1,6.5224044E-2,7.809696E-1,1.1744078E-1,-9.0688306E-1,-5.541487E-1,-4.3495893E-2,1.0397137E0,6.4282584E-1,1.1409539E-1,2.7411604E-2,-9.6385024E-2,-5.664807E-2,9.950676E-2,5.21972E-3,-1.1992798E-1,1.2539113E-1,-4.0433403E-2,9.7504556E-2,2.1363549E-2],"categories":[],"categories_nodes":[],"categories_segments":[],"categories_sizes":[],"default_left":[0,0,0,0,0,0,0,0,0,0,0,0,0,0,0,0,0,0,0,0,0,0,0,0,0,0,0],"id":11,"left_children":[1,3,5,-1,-1,7,9,11,13,15,-1,17,19,21,23,25,-1,-1,-1,-1,-1,-1,-1,-1,-1,-1,-1],"loss_changes":[6.692637E2,6.2323E-1,1.175399E2,0E0,0E0,9.4342606E1,1.5601158E0,1.2476776E1,2.9943382E1,1.1663399E0,0E0,8.510986E0,1.3089218E1,2.824765E1,9.280355E0,4.054742E0,0E0,0E0,0E0,0E0,0E0,0E0,0E0,0E0,0E0,0E0,0E0],"parents":[2147483647,0,0,1,1,2,2,5,5,6,6,7,7,8,8,9,9,11,11,12,12,13,13,14,14,15,15],"right_children":[2,4,6,-1,-1,8,10,12,14,16,-1,18,20,22,24,26,-1,-1,-1,-1,-1,-1,-1,-1,-1,-1,-1],"split_conditions":[1E0,1E0,1E0,1.2001367E-1,1.4290468E-1,5E0,1E0,2E0,1E0,5E0,1.1744078E-1,1E0,1E0,1E0,1E0,3E0,1.1409539E-1,2.7411604E-2,-9.6385024E-2,-5.664807E-2,9.950676E-2,5.21972E-3,-1.1992798E-1,1.2539113E-1,-4.0433403E-2,9.7504556E-2,2.1363549E-2],"split_indices":[2,3,7,0,0,3,10,3,12,3,0,3,4,15,6,3,0,0,0,0,0,0,0,0,0,0,0],"split_type":[0,0,0,0,0,0,0,0,0,0,0,0,0,0,0,0,0,0,0,0,0,0,0,0,0,0,0],"sum_hessian":[1.3975233E3,2.7657608E2,1.1209473E3,6.111107E1,2.1546501E2,1.0573956E3,6.3551563E1,7.76195E2,2.8120065E2,3.7202133E1,2.6349428E1,1.2157743E2,6.5461755E2,2.5383649E2,2.736416E1,2.889818E1,8.303955E0,5.419183E0,1.1615825E2,6.500772E2,4.540369E0,2.3530893E2,1.8527557E1,2.3944162E1,3.419999E0,1.5572376E1,1.3325804E1],"tree_param":{"num_deleted":"0","num_feature":"16","num_nodes":"27","size_leaf_vector":"1"}},{"base_weights":[5.456482E-4,1.3370546E0,-3.1657276E-1,1.1733099E-1,1.3749926E-1,-3.9068678E-1,9.961879E-2,-5.559471E-1,5.480792E-2,-4.2534652E-1,-7.05774E-1,1.1963829E-1,-6.8808764E-2,1.3048201E-2,-5.3447872E-2,-7.6650865E-2,-7.608965E-3,-1.50765255E-2,8.375158E-2],"categories":[],"categories_nodes":[],"categories_segments":[],"categories_sizes":[],"default_left":[0,0,0,0,0,0,0,0,0,0,0,0,0,0,0,0,0,0,0],"id":12,"left_children":[1,3,5,-1,-1,7,-1,9,11,13,15,-1,17,-1,-1,-1,-1,-1,-1],"loss_changes":[5.8431226E2,2.911377E-2,1.0880001E2,0E0,0E0,7.773416E1,0E0,1.4765579E1,4.051157E1,2.5175224E1,1.3596924E1,0E0,1.939775E1,0E0,0E0,0E0,0E0,0E0,0E0],"parents":[2147483647,0,0,1,1,2,2,5,5,7,7,8,8,9,9,10,10,12,12],"right_children":[2,4,6,-1,-1,8,-1,10,12,14,16,-1,18,-1,-1,-1,-1,-1,-1],"split_conditions":[1E0,1E0,1E0,1.1733099E-1,1.3749926E-1,5E0,9.961879E-2,1E0,1E0,1E0,1E0,1.1963829E-1,1E0,1.3048201E-2,-5.3447872E-2,-7.6650865E-2,-7.608965E-3,-1.50765255E-2,8.375158E-2],"split_indices":[2,3,7,0,0,3,0,10,9,9,6,0,12,0,0,0,0,0,0],"split_type":[0,0,0,0,0,0,0,0,0,0,0,0,0,0,0,0,0,0,0],"sum_hessian":[1.3766439E3,2.6338412E2,1.1132599E3,5.5550297E1,2.0783382E2,1.0544325E3,5.882732E1,7.6893945E2,2.8549307E2,4.1288022E2,3.5605923E2,2.7046448E1,2.5844662E2,6.772907E1,3.4515112E2,3.245393E2,3.1519922E1,2.377786E2,2.0668026E1],"tree_param":{"num_deleted":"0","num_feature":"16","num_nodes":"19","size_leaf_vector":"1"}},{"base_weights":[2.6987502E-3,1.2934592E-1,-2.7961245E-1,-3.4368E-1,8.8888884E-1,-5.012271E-1,8.6135685E-2,7.612946E-1,1.1287748E-1,-5.335973E-1,6.765202E-1,1.1029859E-1,-2.6463917E-2,1.0076387E-1,4.2256445E-1,-3.976891E-2,-6.8739764E-2,2.2456862E-2,1.20749414E-1,-1.1931567E-2,8.917936E-2,1.2577528E-2,1.04185425E-1],"categories":[],"categories_nodes":[],"categories_segments":[],"categories_sizes":[],"default_left":[0,0,0,0,0,0,0,0,0,0,0,0,0,0,0,0,0,0,0,0,0,0,0],"id":13,"left_children":[1,-1,3,5,7,9,11,13,-1,15,17,-1,19,-1,21,-1,-1,-1,-1,-1,-1,-1,-1],"loss_changes":[4.8838547E2,0E0,8.263518E1,7.069124E1,8.988571E-1,2.9472458E1,3.2167843E1,2.9594536E0,0E0,1.5272705E1,4.7363834E0,0E0,2.1736254E1,0E0,3.325055E0,0E0,0E0,0E0,0E0,0E0,0E0,0E0,0E0],"parents":[2147483647,0,0,2,2,3,3,4,4,5,5,6,6,7,7,9,9,10,10,12,12,14,14],"right_children":[2,-1,4,6,8,10,12,14,-1,16,18,-1,20,-1,22,-1,-1,-1,-1,-1,-1,-1,-1],"split_conditions":[1E0,1.2934592E-1,1E0,5E0,5E0,1E0,1E0,3E0,1.1287748E-1,1E0,3E0,1.1029859E-1,1E0,1.0076387E-1,1E0,-3.976891E-2,-6.8739764E-2,2.2456862E-2,1.20749414E-1,-1.1931567E-2,8.917936E-2,1.2577528E-2,1.04185425E-1],"split_indices":[2,0,7,3,3,1,9,3,0,10,3,0,12,0,10,0,0,0,0,0,0,0,0],"split_type":[0,0,0,0,0,0,0,0,0,0,0,0,0,0,0,0,0,0,0,0,0,0,0],"sum_hessian":[1.3382673E3,2.395293E2,1.098738E3,1.0422961E3,5.6441975E1,7.626016E2,2.796945E2,3.9568985E1,1.6872992E1,7.427346E2,1.9867006E1,2.7007046E1,2.5268744E2,2.1765272E1,1.780371E1,3.9620633E2,3.465283E2,1.1500774E1,8.366233E0,2.3027292E2,2.2414522E1,1.2849026E1,4.9546857E0],"tree_param":{"num_deleted":"0","num_feature":"16","num_nodes":"23","size_leaf_vector":"1"}},{"base_weights":[-7.760615E-4,1.2576407E-1,-2.613113E-1,6.6312596E-2,-3.1156325E-1,3.6421263E-1,-3.8892305E-1,-2.6323664E-1,-7.177248E-1,2.8746152E-1,1.465344E-1,-4.9852362E-1,1.1139176E-1,-2.9967445E-1,1.1638484E0,-1.1436837E-1,-3.6037356E-1,2.348698E-2,1.2531574E-1,-5.147325E-2,-2.0706715E-2,-3.0795384E-2,1.8147662E-1,9.368139E-2,1.4995839E-1,-9.728592E-2,-9.898271E-3],"categories":[],"categories_nodes":[],"categories_segments":[],"categories_sizes":[],"default_left":[0,0,0,0,0,0,0,0,0,0,0,0,0,0,0,0,0,0,0,0,0,0,0,0,0,0,0],"id":14,"left_children":[1,-1,3,5,7,9,11,13,15,17,-1,19,-1,21,23,-1,25,-1,-1,-1,-1,-1,-1,-1,-1,-1,-1],"loss_changes":[4.301455E2,0E0,1.7915695E1,1.9856108E1,1.8312126E1,7.048584E0,1.0106083E1,4.4232445E1,1.4755592E1,3.9652905E0,0E0,1.5198898E-1,0E0,1.4978874E1,2.1233559E-1,0E0,8.8126335E0,0E0,0E0,0E0,0E0,0E0,0E0,0E0,0E0,0E0,0E0],"parents":[2147483647,0,0,2,2,3,3,4,4,5,5,6,6,7,7,8,8,9,9,11,11,13,13,14,14,16,16],"right_children":[2,-1,4,6,8,10,12,14,16,18,-1,20,-1,22,24,-1,26,-1,-1,-1,-1,-1,-1,-1,-1,-1,-1],"split_conditions":[1E0,1.2576407E-1,1E0,1E0,1E0,1E0,1E0,1E0,1E0,1E0,1.465344E-1,1E0,1.1139176E-1,1E0,1E0,-1.1436837E-1,1E0,2.348698E-2,1.2531574E-1,-5.147325E-2,-2.0706715E-2,-3.0795384E-2,1.8147662E-1,9.368139E-2,1.4995839E-1,-9.728592E-2,-9.898271E-3],"split_indices":[2,0,9,10,15,6,6,12,12,15,0,12,0,0,10,0,11,0,0,0,0,0,0,0,0,0,0],"split_type":[0,0,0,0,0,0,0,0,0,0,0,0,0,0,0,0,0,0,0,0,0,0,0,0,0,0,0],"sum_hessian":[1.3099691E3,2.2403342E2,1.0859357E3,1.4437108E2,9.4156464E2,8.738649E1,5.698459E1,8.4291907E2,9.864559E1,8.2871254E1,4.515238E0,5.3734097E1,3.2504914E0,8.2270294E2,2.0216091E1,4.3998913E1,5.464668E1,7.977019E1,3.1010642E0,5.0177494E1,3.556604E0,8.2034515E2,2.357828E0,1.4321674E1,5.894418E0,1.55315695E1,3.911511E1],"tree_param":{"num_deleted":"0","num_feature":"16","num_nodes":"27","size_leaf_vector":"1"}},{"base_weights":[1.5090428E-2,1.2274021E-1,-2.2545584E-1,-2.837605E-1,8.1818235E-1,-4.27601E-1,9.0305544E-2,6.8620884E-1,1.0582383E-1,-4.5819458E-1,6.888696E-1,1.8044129E-1,-8.1404674E-1,9.204672E-2,3.968749E-1,-7.349103E-2,-4.015251E-2,3.7278242E-2,1.1495475E-1,2.6725864E-2,-6.0262233E-2,6.438487E-2,-9.671095E-2,9.217102E-2,2.6596004E-2],"categories":[],"categories_nodes":[],"categories_segments":[],"categories_sizes":[],"default_left":[0,0,0,0,0,0,0,0,0,0,0,0,0,0,0,0,0,0,0,0,0,0,0,0,0],"id":15,"left_children":[1,-1,3,5,7,9,11,13,-1,15,17,19,21,-1,23,-1,-1,-1,-1,-1,-1,-1,-1,-1,-1],"loss_changes":[3.6992828E2,0E0,6.4644775E1,5.4021927E1,1.0564194E0,2.5073257E1,2.2928236E1,2.2883282E0,0E0,1.0777359E1,2.4446335E0,1.7494427E1,6.315626E0,0E0,1.0791922E0,0E0,0E0,0E0,0E0,0E0,0E0,0E0,0E0,0E0,0E0],"parents":[2147483647,0,0,2,2,3,3,4,4,5,5,6,6,7,7,9,9,10,10,11,11,12,12,14,14],"right_children":[2,-1,4,6,8,10,12,14,-1,16,18,20,22,-1,24,-1,-1,-1,-1,-1,-1,-1,-1,-1,-1],"split_conditions":[1E0,1.2274021E-1,1E0,5E0,5E0,1E0,1E1,3E0,1.0582383E-1,2E0,3E0,1E0,1E0,9.204672E-2,1E0,-7.349103E-2,-4.015251E-2,3.7278242E-2,1.1495475E-1,2.6725864E-2,-6.0262233E-2,6.438487E-2,-9.671095E-2,9.217102E-2,2.6596004E-2],"split_indices":[2,0,7,3,3,1,3,3,0,3,3,15,11,0,9,0,0,0,0,0,0,0,0,0,0],"split_type":[0,0,0,0,0,0,0,0,0,0,0,0,0,0,0,0,0,0,0,0,0,0,0,0,0],"sum_hessian":[1.2665927E3,2.0902751E2,1.0575651E3,1.0022981E3,5.5267025E1,7.2382196E2,2.7847614E2,3.81514E1,1.7115623E1,7.0509064E2,1.8731318E1,2.5396428E2,2.451185E1,1.9876846E1,1.8274555E1,1.1781834E2,5.8727234E2,1.2182016E1,6.549302E0,2.2921065E2,2.4753618E1,2.0243013E0,2.2487549E1,2.442417E0,1.5832139E1],"tree_param":{"num_deleted":"0","num_feature":"16","num_nodes":"25","size_leaf_vector":"1"}},{"base_weights":[2.181914E-2,1.2008872E-1,-1.9112514E-1,-2.4751481E-1,8.557582E-1,-4.2806208E-1,-2.058706E-2,7.2481847E-1,1.0259992E-1,6.0844874E-1,-4.4015935E-1,4.4543814E-2,-6.868919E-1,1.08899534E-1,5.735353E-1,-3.886154E-2,1.0154052E-1,-6.782561E-2,-3.7766095E-2,9.706273E-3,-7.8275405E-2,-9.6741885E-2,4.7140196E-3,8.506688E-2,3.1878438E-2],"categories":[],"categories_nodes":[],"categories_segments":[],"categories_sizes":[],"default_left":[0,0,0,0,0,0,0,0,0,0,0,0,0,0,0,0,0,0,0,0,0,0,0,0,0],"id":16,"left_children":[1,-1,3,5,7,9,11,13,-1,15,17,19,21,-1,23,-1,-1,-1,-1,-1,-1,-1,-1,-1,-1],"loss_changes":[3.1204453E2,0E0,6.2361904E1,4.0952595E1,4.6082687E-1,7.248604E0,1.9300291E1,1.2458076E0,0E0,3.171009E0,7.9413986E0,1.7691536E1,8.199852E0,0E0,1.5713367E0,0E0,0E0,0E0,0E0,0E0,0E0,0E0,0E0,0E0,0E0],"parents":[2147483647,0,0,2,2,3,3,4,4,5,5,6,6,7,7,9,9,10,10,11,11,12,12,14,14],"right_children":[2,-1,4,6,8,10,12,14,-1,16,18,20,22,-1,24,-1,-1,-1,-1,-1,-1,-1,-1,-1,-1],"split_conditions":[1E0,1.2008872E-1,1E0,4E0,1E0,1E0,1E0,1E0,1.0259992E-1,1E0,2E0,1E1,1E0,1.08899534E-1,3E0,-3.886154E-2,1.0154052E-1,-6.782561E-2,-3.7766095E-2,9.706273E-3,-7.8275405E-2,-9.6741885E-2,4.7140196E-3,8.506688E-2,3.1878438E-2],"split_indices":[2,0,7,3,10,3,15,11,0,11,3,3,12,0,3,0,0,0,0,0,0,0,0,0,0],"split_type":[0,0,0,0,0,0,0,0,0,0,0,0,0,0,0,0,0,0,0,0,0,0,0,0,0],"sum_hessian":[1.2409158E3,1.8912044E2,1.0517954E3,9.987613E2,5.303404E1,5.5572864E2,4.430327E2,3.294907E1,2.0084969E1,5.8424587E0,5.4988617E2,4.044328E2,3.8599903E1,7.851096E0,2.5097975E1,1.7065041E0,4.135955E0,1.1228139E2,4.3760477E2,3.8112097E2,2.3311825E1,2.769694E1,1.0902964E1,1.090052E1,1.4197454E1],"tree_param":{"num_deleted":"0","num_feature":"16","num_nodes":"25","size_leaf_vector":"1"}},{"base_weights":[1.4353908E-2,1.17716566E-1,-1.8777944E-1,-2.366902E-1,7.892414E-1,-3.7164083E-1,1.0973369E-1,6.3636595E-1,9.9624746E-2,-4.0281886E-1,7.268298E-1,1.0594321E0,1.4244707E-2,1.0343112E-1,4.8903584E-1,-4.1006524E-2,1.6093706E-1,4.2698104E-2,1.2208872E-1,8.566211E-2,1.3088314E-1,1.0204031E-2,-8.4562875E-2,3.6375683E-2,9.5648654E-2],"categories":[],"categories_nodes":[],"categories_segments":[],"categories_sizes":[],"default_left":[0,0,0,0,0,0,0,0,0,0,0,0,0,0,0,0,0,0,0,0,0,0,0,0,0],"id":17,"left_children":[1,-1,3,5,7,9,11,13,-1,15,17,19,21,-1,23,-1,-1,-1,-1,-1,-1,-1,-1,-1,-1],"loss_changes":[2.830339E2,0E0,4.9212006E1,4.575183E1,9.2113304E-1,2.4399681E1,2.4913101E1,1.3137026E0,0E0,1.0649506E1,2.4095192E0,1.4841461E-1,1.9018856E1,0E0,1.0895195E0,0E0,0E0,0E0,0E0,0E0,0E0,0E0,0E0,0E0,0E0],"parents":[2147483647,0,0,2,2,3,3,4,4,5,5,6,6,7,7,9,9,10,10,11,11,12,12,14,14],"right_children":[2,-1,4,6,8,10,12,14,-1,16,18,20,22,-1,24,-1,-1,-1,-1,-1,-1,-1,-1,-1,-1],"split_conditions":[1E0,1.17716566E-1,1E0,5E0,1E0,1E0,1E0,1E0,9.9624746E-2,1E0,1E0,7E0,1E1,1.0343112E-1,1E0,-4.1006524E-2,1.6093706E-1,4.2698104E-2,1.2208872E-1,8.566211E-2,1.3088314E-1,1.0204031E-2,-8.4562875E-2,3.6375683E-2,9.5648654E-2],"split_indices":[2,0,7,3,10,1,9,9,0,0,10,3,3,0,12,0,0,0,0,0,0,0,0,0,0],"split_type":[0,0,0,0,0,0,0,0,0,0,0,0,0,0,0,0,0,0,0,0,0,0,0,0,0],"sum_hessian":[1.2022386E3,1.7732399E2,1.0249147E3,9.76774E2,4.8140648E1,7.0288855E2,2.7388547E2,3.0034266E1,1.8106382E1,6.841048E2,1.8783756E1,2.4100079E1,2.4978537E2,6.488409E0,2.3545856E1,6.8244336E2,1.6614311E0,1.2849492E1,5.9342628E0,1.573728E1,8.362799E0,2.27444E2,2.234137E1,1.9971556E1,3.5743015E0],"tree_param":{"num_deleted":"0","num_feature":"16","num_nodes":"25","size_leaf_vector":"1"}},{"base_weights":[1.13301445E-2,1.1565246E-1,-1.7585623E-1,-2.0937993E-1,1.0039722E-1,-2.408737E-1,1.4366733E-1,-2.0601156E-1,-9.693401E-1,5.775841E-1,-1.0724511E-1,-1.0081836E-2,-3.4165796E-2,9.7884215E-2,-1.0489575E-1,-3.9451297E-2,1.0778528E-1,-8.481907E-2,1.4250377E-2],"categories":[],"categories_nodes":[],"categories_segments":[],"categories_sizes":[],"default_left":[0,0,0,0,0,0,0,0,0,0,0,0,0,0,0,0,0,0,0],"id":18,"left_children":[1,-1,3,5,-1,7,9,11,13,15,17,-1,-1,-1,-1,-1,-1,-1,-1],"loss_changes":[2.5495966E2,0E0,4.0645626E1,1.1096817E1,0E0,2.300713E1,9.001603E0,1.242728E1,7.4582977E0,1.51314125E1,9.9042845E0,0E0,0E0,0E0,0E0,0E0,0E0,0E0,0E0],"parents":[2147483647,0,0,2,2,3,3,5,5,6,6,7,7,8,8,9,9,10,10],"right_children":[2,-1,4,6,-1,8,10,12,14,16,18,-1,-1,-1,-1,-1,-1,-1,-1],"split_conditions":[1E0,1.1565246E-1,1E0,1E0,1.0039722E-1,1E0,1E0,1E0,1E0,1E0,1E0,-1.0081836E-2,-3.4165796E-2,9.7884215E-2,-1.0489575E-1,-3.9451297E-2,1.0778528E-1,-8.481907E-2,1.4250377E-2],"split_indices":[2,0,1,12,0,15,13,10,9,9,11,0,0,0,0,0,0,0,0],"split_type":[0,0,0,0,0,0,0,0,0,0,0,0,0,0,0,0,0,0,0],"sum_hessian":[1.1874241E3,1.6609387E2,1.02133026E3,9.9391174E2,2.7418514E1,9.128024E2,8.11093E1,8.723379E2,4.0464565E1,2.9240372E1,5.1868927E1,4.9230255E2,3.800353E2,1.1453094E0,3.9319256E1,1.00068865E1,1.9233484E1,1.2471821E1,3.9397106E1],"tree_param":{"num_deleted":"0","num_feature":"16","num_nodes":"19","size_leaf_vector":"1"}},{"base_weights":[2.4273762E-2,1.1381184E-1,-1.4268419E-1,-1.8435435E-1,7.132436E-1,-2.0987059E-1,7.8171915E-1,5.1447463E-1,1.02339044E-1,-1.2032533E-1,-3.3369404E-1,5.8503187E-1,1.14743434E-1,1.0253592E-1,3.4596208E-1,3.189274E-2,-1.9126575E-2,-3.451441E-2,1.4397722E-1,1.18108146E-1,3.0672798E-2,9.3444906E-2,1.96685E-2],"categories":[],"categories_nodes":[],"categories_segments":[],"categories_sizes":[],"default_left":[0,0,0,0,0,0,0,0,0,0,0,0,0,0,0,0,0,0,0,0,0,0,0],"id":19,"left_children":[1,-1,3,5,7,9,11,13,-1,15,17,19,-1,-1,21,-1,-1,-1,-1,-1,-1,-1,-1],"loss_changes":[2.1537196E2,0E0,3.6058235E1,2.386124E1,2.3689556E0,1.0353287E1,1.1233397E0,2.2826004E0,0E0,1.7060675E1,8.473804E0,2.667406E0,0E0,0E0,1.9724584E0,0E0,0E0,0E0,0E0,0E0,0E0,0E0,0E0],"parents":[2147483647,0,0,2,2,3,3,4,4,5,5,6,6,7,7,9,9,10,10,11,11,14,14],"right_children":[2,-1,4,6,8,10,12,14,-1,16,18,20,-1,-1,22,-1,-1,-1,-1,-1,-1,-1,-1],"split_conditions":[1E0,1.1381184E-1,1E0,1E0,1E0,1E0,1E0,1E0,1.02339044E-1,1E0,1E0,1E0,1.14743434E-1,1.0253592E-1,1E0,3.189274E-2,-1.9126575E-2,-3.451441E-2,1.4397722E-1,1.18108146E-1,3.0672798E-2,9.3444906E-2,1.96685E-2],"split_indices":[2,0,7,1,10,10,10,11,0,9,0,11,0,0,9,0,0,0,0,0,0,0,0],"split_type":[0,0,0,0,0,0,0,0,0,0,0,0,0,0,0,0,0,0,0,0,0,0,0],"sum_hessian":[1.1562571E3,1.4996469E2,1.00629236E3,9.603244E2,4.5968014E1,9.363753E2,2.394908E1,2.9634481E1,1.6333534E1,5.445473E2,3.9182797E2,1.726395E1,6.685128E0,6.089128E0,2.3545353E1,7.523118E1,4.6931613E2,3.9011465E2,1.7133178E0,4.462551E0,1.2801399E1,3.6998405E0,1.9845512E1],"tree_param":{"num_deleted":"0","num_feature":"16","num_nodes":"23","size_leaf_vector":"1"}},{"base_weights":[1.2838485E-2,-3.1800814E-2,8.1649935E-1,8.718749E-1,-5.242572E-2,9.4222024E-2,6.7524236E-1,1.0956144E-2,1.016953E0,-7.0194505E-2,6.7643464E-1,2.4790922E-1,8.7982106E-1,1.09437995E-1,3.1240499E-2,1.380227E-1,-1.2297202E-1,1.0088242E-1,1.1649374E0,6.765016E-2,1.2785405E-2,5.903828E-2,9.789147E-2,2.6244363E-2,-7.727803E-2,-1.714505E-2,2.5337836E-2,9.201051E-2,-1.3708219E-2,1.2095144E-1,3.0887494E-2],"categories":[],"categories_nodes":[],"categories_segments":[],"categories_sizes":[],"default_left":[0,0,0,0,0,0,0,0,0,0,0,0,0,0,0,0,0,0,0,0,0,0,0,0,0,0,0,0,0,0,0],"id":20,"left_children":[1,3,5,7,9,-1,11,-1,13,15,17,19,21,-1,-1,23,25,27,29,-1,-1,-1,-1,-1,-1,-1,-1,-1,-1,-1,-1],"loss_changes":[4.0734467E1,2.0100197E1,4.2486572E-1,2.5501976E0,1.3683815E1,0E0,2.550188E0,0E0,7.544651E-1,1.13223E1,6.9542217E0,5.126401E-1,2.4999619E-2,0E0,0E0,2.3831259E1,1.5027299E1,2.5906441E0,1.4196587E-1,0E0,0E0,0E0,0E0,0E0,0E0,0E0,0E0,0E0,0E0,0E0,0E0],"parents":[2147483647,0,0,1,1,2,2,3,3,4,4,6,6,8,8,9,9,10,10,11,11,12,12,15,15,16,16,17,17,18,18],"right_children":[2,4,6,8,10,-1,12,-1,14,16,18,20,22,-1,-1,24,26,28,30,-1,-1,-1,-1,-1,-1,-1,-1,-1,-1,-1,-1],"split_conditions":[1E0,1E0,3E0,1E0,1E0,9.4222024E-2,4E0,1.0956144E-2,1E0,1E0,3E0,1E0,5E0,1.09437995E-1,3.1240499E-2,1E0,6E0,2E0,8E0,6.765016E-2,1.2785405E-2,5.903828E-2,9.789147E-2,2.6244363E-2,-7.727803E-2,-1.714505E-2,2.5337836E-2,9.201051E-2,-1.3708219E-2,1.2095144E-1,3.0887494E-2],"split_indices":[7,3,3,11,1,0,3,0,13,11,3,11,3,0,0,15,3,3,3,0,0,0,0,0,0,0,0,0,0,0,0],"split_type":[0,0,0,0,0,0,0,0,0,0,0,0,0,0,0,0,0,0,0,0,0,0,0,0,0,0,0,0,0,0,0],"sum_hessian":[1.1337363E3,1.0749867E3,5.8749645E1,2.306636E1,1.0519203E3,2.8084112E1,3.0665533E1,3.9685872E0,1.9097773E1,1.0277682E3,2.4152126E1,1.0643893E1,2.0021639E1,1.6708294E1,2.3894787E0,2.0750537E2,8.202628E2,1.1642035E1,1.2510092E1,1.3148844E0,9.329009E0,6.8810163E0,1.3140622E1,1.8319212E2,2.4313244E1,7.271425E2,9.312033E1,1.9752902E0,9.666744E0,1.149846E1,1.0116314E0],"tree_param":{"num_deleted":"0","num_feature":"16","num_nodes":"31","size_leaf_vector":"1"}},{"base_weights":[1.0887608E-2,1.1233705E-1,-1.4444177E-1,-1.8157534E-1,7.0373243E-1,-2.8474796E-1,8.003224E-2,5.835957E-1,9.43487E-2,-3.028336E-1,5.404393E-1,1.4788291E-1,-6.602348E-1,7.692573E-2,3.456423E-1,-5.7281304E-2,-2.5339508E-2,8.929778E-2,-8.048179E-2,7.4370787E-3,1.4649066E-1,-3.473574E-2,-1.2495307E-1,7.6115252E-3,5.8163073E-2],"categories":[],"categories_nodes":[],"categories_segments":[],"categories_sizes":[],"default_left":[0,0,0,0,0,0,0,0,0,0,0,0,0,0,0,0,0,0,0,0,0,0,0,0,0],"id":21,"left_children":[1,-1,3,5,7,9,11,13,-1,15,17,19,21,-1,23,-1,-1,-1,-1,-1,-1,-1,-1,-1,-1],"loss_changes":[1.9493202E2,0E0,3.1306171E1,2.5642323E1,6.5125084E-1,1.0326199E1,1.3621264E1,1.0780029E0,0E0,8.757374E0,7.8151665E0,2.38492E1,3.7678032E0,0E0,9.1922784E-1,0E0,0E0,0E0,0E0,0E0,0E0,0E0,0E0,0E0,0E0],"parents":[2147483647,0,0,2,2,3,3,4,4,5,5,6,6,7,7,9,9,10,10,11,11,12,12,14,14],"right_children":[2,-1,4,6,8,10,12,14,-1,16,18,20,22,-1,24,-1,-1,-1,-1,-1,-1,-1,-1,-1,-1],"split_conditions":[1E0,1.1233705E-1,1E0,5E0,5E0,1E0,1E0,3E0,9.43487E-2,2E0,1E0,1E0,1E0,7.692573E-2,4E0,-5.7281304E-2,-2.5339508E-2,8.929778E-2,-8.048179E-2,7.4370787E-3,1.4649066E-1,-3.473574E-2,-1.2495307E-1,7.6115252E-3,5.8163073E-2],"split_indices":[2,0,7,3,3,4,15,3,0,3,6,6,6,0,3,0,0,0,0,0,0,0,0,0,0],"split_type":[0,0,0,0,0,0,0,0,0,0,0,0,0,0,0,0,0,0,0,0,0,0,0,0,0],"sum_hessian":[1.1261315E3,1.3720741E2,9.88924E2,9.4819727E2,4.072672E1,6.7995044E2,2.6824683E2,2.9419346E1,1.1307374E1,6.65987E2,1.3963435E1,2.464575E2,2.1789331E1,1.5271244E1,1.4148101E1,1.0144085E2,5.6454614E2,1.1330393E1,2.6330423E0,2.344289E2,1.2028615E1,1.527092E1,6.5184107E0,7.2221165E0,6.925985E0],"tree_param":{"num_deleted":"0","num_feature":"16","num_nodes":"25","size_leaf_vector":"1"}},{"base_weights":[5.364627E-3,1.10943496E-1,-1.3485852E-1,-1.6800515E-1,6.399413E-1,-1.7422453E-1,1.5695904E-1,4.7240132E-1,9.0291314E-2,8.72013E-2,-2.1536954E-1,9.489034E-2,3.3171952E-1,2.0064537E-3,1.5499975E-1,-1.753763E-2,-5.8428656E-2,2.1247178E-2,8.5760824E-2],"categories":[],"categories_nodes":[],"categories_segments":[],"categories_sizes":[],"default_left":[0,0,0,0,0,0,0,0,0,0,0,0,0,0,0,0,0,0,0],"id":22,"left_children":[1,-1,3,5,7,9,-1,11,-1,13,15,-1,17,-1,-1,-1,-1,-1,-1],"loss_changes":[1.7136493E2,0E0,2.533205E1,1.0460838E1,1.3579521E0,1.0132162E1,0E0,1.4843154E0,0E0,1.25952015E1,1.18876E1,0E0,1.2135999E0,0E0,0E0,0E0,0E0,0E0,0E0],"parents":[2147483647,0,0,2,2,3,3,4,4,5,5,7,7,9,9,10,10,12,12],"right_children":[2,-1,4,6,8,10,-1,12,-1,14,16,-1,18,-1,-1,-1,-1,-1,-1],"split_conditions":[1E0,1.10943496E-1,1E0,1E0,1E0,1E0,1.5695904E-1,1E0,9.0291314E-2,1E0,1E0,9.489034E-2,1E0,2.0064537E-3,1.5499975E-1,-1.753763E-2,-5.8428656E-2,2.1247178E-2,8.5760824E-2],"split_indices":[2,0,7,0,10,9,0,11,0,6,15,0,12,0,0,0,0,0,0],"split_type":[0,0,0,0,0,0,0,0,0,0,0,0,0,0,0,0,0,0,0],"sum_hessian":[1.1049261E3,1.2373851E2,9.811877E2,9.4168475E2,3.9502945E1,9.392227E2,2.462031E0,2.5837929E1,1.3665014E1,1.27567726E2,8.1165497E2,4.5800047E0,2.1257925E1,1.2293901E2,4.628715E0,7.3360254E2,7.8052414E1,1.847309E1,2.7848353E0],"tree_param":{"num_deleted":"0","num_feature":"16","num_nodes":"19","size_leaf_vector":"1"}},{"base_weights":[8.622015E-3,9.637649E-1,-1.7544724E-2,4.4602808E-2,1.0514082E-1,-4.437117E-2,5.9947795E-1,-6.303201E-2,7.293284E-1,4.1141787E-1,9.075509E-2,-9.762241E-2,3.0444738E-1,2.3538956E-1,1.1377559E-1,9.6295394E-2,2.302144E-1,-7.047724E-3,-7.040631E-2,-2.0451374E-2,7.138949E-2,-4.7506834E-3,1.009207E-1,6.0307004E-2,-3.7660215E-3],"categories":[],"categories_nodes":[],"categories_segments":[],"categories_sizes":[],"default_left":[0,0,0,0,0,0,0,0,0,0,0,0,0,0,0,0,0,0,0,0,0,0,0,0,0],"id":23,"left_children":[1,3,5,-1,-1,7,9,11,13,15,-1,17,19,21,-1,-1,23,-1,-1,-1,-1,-1,-1,-1,-1],"loss_changes":[2.7364141E1,8.557873E-1,1.7671623E1,0E0,0E0,1.4808957E1,2.203888E0,1.27328E1,4.6063414E0,2.721747E0,0E0,1.4998863E1,1.8113268E1,2.7178779E0,0E0,0E0,2.368137E0,0E0,0E0,0E0,0E0,0E0,0E0,0E0,0E0],"parents":[2147483647,0,0,1,1,2,2,5,5,6,6,7,7,8,8,9,9,11,11,12,12,13,13,16,16],"right_children":[2,4,6,-1,-1,8,10,12,14,16,-1,18,20,22,-1,-1,24,-1,-1,-1,-1,-1,-1,-1,-1],"split_conditions":[1E0,1E0,1E0,4.4602808E-2,1.0514082E-1,1E0,1E0,1E0,3E0,1E0,9.075509E-2,1E0,3E0,1E0,1.1377559E-1,9.6295394E-2,3E0,-7.047724E-3,-7.040631E-2,-2.0451374E-2,7.138949E-2,-4.7506834E-3,1.009207E-1,6.0307004E-2,-3.7660215E-3],"split_indices":[3,11,7,0,0,1,10,12,3,11,0,15,3,10,0,0,3,0,0,0,0,0,0,0,0],"split_type":[0,0,0,0,0,0,0,0,0,0,0,0,0,0,0,0,0,0,0,0,0,0,0,0,0],"sum_hessian":[1.0931967E3,2.8194763E1,1.065002E3,4.9634156E0,2.3231348E1,1.0215172E3,4.3484665E1,9.9835645E2,2.3160805E1,2.8451925E1,1.5032741E1,9.131382E2,8.521826E1,1.119648E1,1.1964325E1,5.9691567E0,2.2482769E1,8.7508435E2,3.805384E1,3.821538E1,4.7002884E1,8.886362E0,2.3101175E0,8.876385E0,1.3606384E1],"tree_param":{"num_deleted":"0","num_feature":"16","num_nodes":"25","size_leaf_vector":"1"}},{"base_weights":[2.1648323E-2,-1.1830235E-2,7.568164E-2,-2.764066E-2,6.202956E-1,-3.489934E-2,1.2891635E-1,1.0874405E-1,4.5646834E-1,-5.567709E-3,-3.2007408E-1,2.1198295E-1,1.05624154E-1,-3.8896173E-3,4.2786688E-2,1.1739142E-1,-4.3280948E-2,9.703507E-2,-1.5860477E-4],"categories":[],"categories_nodes":[],"categories_segments":[],"categories_sizes":[],"default_left":[0,0,0,0,0,0,0,0,0,0,0,0,0,0,0,0,0,0,0],"id":24,"left_children":[1,3,-1,5,7,9,-1,-1,11,13,15,17,-1,-1,-1,-1,-1,-1,-1],"loss_changes":[2.651252E1,1.0320364E1,0E0,9.667518E0,1.4320784E0,8.381078E0,0E0,0E0,2.7644234E0,1.3158345E1,1.6247078E1,2.5490355E0,0E0,0E0,0E0,0E0,0E0,0E0,0E0],"parents":[2147483647,0,0,1,1,3,3,4,4,5,5,8,8,9,9,10,10,11,11],"right_children":[2,4,-1,6,8,10,-1,-1,12,14,16,18,-1,-1,-1,-1,-1,-1,-1],"split_conditions":[1E0,1E0,7.568164E-2,1E0,1E0,1E0,1.2891635E-1,1.0874405E-1,1E0,1E0,1E0,1E0,1.05624154E-1,-3.8896173E-3,4.2786688E-2,1.1739142E-1,-4.3280948E-2,9.703507E-2,-1.5860477E-4],"split_indices":[7,1,0,0,9,15,0,0,6,6,9,11,0,0,0,0,0,0,0],"split_type":[0,0,0,0,0,0,0,0,0,0,0,0,0,0,0,0,0,0,0],"sum_hessian":[1.0758395E3,1.0299221E3,4.591735E1,1.0057237E3,2.4198399E1,1.00117834E3,4.5453444E0,4.8191414E0,1.9379257E1,9.0873047E2,9.24479E1,1.4728799E1,4.650459E0,8.446893E2,6.404117E1,5.826124E0,8.662177E1,2.457807E0,1.2270991E1],"tree_param":{"num_deleted":"0","num_feature":"16","num_nodes":"19","size_leaf_vector":"1"}},{"base_weights":[2.1802373E-2,1.09698825E-1,-1.04588784E-1,-2.0331283E-1,1.3885061E-1,-2.3088706E-1,5.164993E-1,2.0853327E-1,-5.7611793E-1,-2.3676331E-1,1.2652515E-1,7.108353E-2,3.0067044E-1,1.4433974E-1,8.319305E-2,-7.460494E-1,1.6863573E-1,-1.4783265E-2,-3.491072E-2,1.25354035E-2,7.956368E-2,1.0802295E-2,8.9287646E-2,-9.257277E-2,1.2578392E-1],"categories":[],"categories_nodes":[],"categories_segments":[],"categories_sizes":[],"default_left":[0,0,0,0,0,0,0,0,0,0,0,0,0,0,0,0,0,0,0,0,0,0,0,0,0],"id":25,"left_children":[1,-1,3,5,7,9,11,13,15,17,-1,-1,19,21,-1,23,-1,-1,-1,-1,-1,-1,-1,-1,-1],"loss_changes":[1.465785E2,0E0,2.3228157E1,1.37590885E1,1.4026049E1,6.124447E0,8.6265755E-1,1.0087107E1,1.0890295E1,6.550251E0,0E0,0E0,1.1057599E0,6.2228866E0,0E0,9.804466E0,0E0,0E0,0E0,0E0,0E0,0E0,0E0,0E0,0E0],"parents":[2147483647,0,0,2,2,3,3,4,4,5,5,6,6,7,7,8,8,9,9,12,12,13,13,15,15],"right_children":[2,-1,4,6,8,10,12,14,16,18,-1,-1,20,22,-1,24,-1,-1,-1,-1,-1,-1,-1,-1,-1],"split_conditions":[1E0,1.09698825E-1,5E0,1E0,1E1,1E0,3E0,8E0,1E0,1E0,1.2652515E-1,7.108353E-2,1E0,1E0,8.319305E-2,1E0,1.6863573E-1,-1.4783265E-2,-3.491072E-2,1.25354035E-2,7.956368E-2,1.0802295E-2,8.9287646E-2,-9.257277E-2,1.2578392E-1],"split_indices":[2,0,3,7,3,0,3,3,13,10,0,0,10,7,0,6,0,0,0,0,0,0,0,0,0],"split_type":[0,0,0,0,0,0,0,0,0,0,0,0,0,0,0,0,0,0,0,0,0,0,0,0,0],"sum_hessian":[1.0767797E3,1.1245624E2,9.643234E2,6.862055E2,2.7811792E2,6.615427E2,2.4662827E1,2.5406448E2,2.405344E1,6.59793E2,1.7496687E0,1.1770737E1,1.289209E1,2.3146155E2,2.2602928E1,2.2996458E1,1.056982E0,3.6956424E2,2.902288E2,1.0445549E1,2.446541E0,2.2184271E2,9.618839E0,2.159792E1,1.3985391E0],"tree_param":{"num_deleted":"0","num_feature":"16","num_nodes":"25","size_leaf_vector":"1"}},{"base_weights":[1.4633788E-2,1.08500026E-1,-1.02453366E-1,-1.2723453E-1,5.990555E-1,-1.4460541E-1,5.7243425E-1,4.6129656E-1,8.1302536E-1,9.519313E-2,-1.8357605E-1,3.743959E-1,9.35558E-2,8.8663734E-2,3.2179162E-1,2.9700985E-2,8.703674E-1,3.4984495E-2,-3.033315E-2,-1.50487665E-2,-4.9388997E-2,9.9564545E-2,1.5219064E-2,2.254791E-2,7.4479006E-2,9.442987E-2,3.498167E-2],"categories":[],"categories_nodes":[],"categories_segments":[],"categories_sizes":[],"default_left":[0,0,0,0,0,0,0,0,0,0,0,0,0,0,0,0,0,0,0,0,0,0,0,0,0,0,0],"id":26,"left_children":[1,-1,3,5,7,9,11,13,15,17,19,21,-1,-1,23,-1,25,-1,-1,-1,-1,-1,-1,-1,-1,-1,-1],"loss_changes":[1.322448E2,0E0,1.6613337E1,1.12599535E1,5.8684635E-1,8.410858E0,1.2663727E0,1.0297923E0,8.086777E-2,1.2915246E1,7.8620777E0,2.08677E0,0E0,0E0,5.7594216E-1,0E0,4.6992302E-2,0E0,0E0,0E0,0E0,0E0,0E0,0E0,0E0,0E0,0E0],"parents":[2147483647,0,0,2,2,3,3,4,4,5,5,6,6,7,7,8,8,9,9,10,10,11,11,14,14,16,16],"right_children":[2,-1,4,6,8,10,12,14,16,18,20,22,-1,-1,24,-1,26,-1,-1,-1,-1,-1,-1,-1,-1,-1,-1],"split_conditions":[1E0,1.08500026E-1,1E0,1E0,1E0,1E0,1E0,1E0,1E0,1E0,1E0,1E0,9.35558E-2,8.8663734E-2,1E0,2.9700985E-2,1E0,3.4984495E-2,-3.033315E-2,-1.50487665E-2,-4.9388997E-2,9.9564545E-2,1.5219064E-2,2.254791E-2,7.4479006E-2,9.442987E-2,3.498167E-2],"split_indices":[2,0,7,1,10,9,10,9,9,10,15,9,0,0,12,0,8,0,0,0,0,0,0,0,0,0,0],"split_type":[0,0,0,0,0,0,0,0,0,0,0,0,0,0,0,0,0,0,0,0,0,0,0,0,0,0,0],"sum_hessian":[1.0533181E3,1.030458E2,9.5027234E2,9.186395E2,3.163279E1,8.971588E2,2.1480705E1,2.1163265E1,1.0469525E1,1.2521693E2,7.719419E2,1.5214276E1,6.26643E0,3.9041595E0,1.7259106E1,1.6650969E0,8.804429E0,7.647353E1,4.8743397E1,6.989036E2,7.303826E1,3.0911586E0,1.2123117E1,1.5306922E1,1.9521832E0,6.9966846E0,1.8077439E0],"tree_param":{"num_deleted":"0","num_feature":"16","num_nodes":"27","size_leaf_vector":"1"}},{"base_weights":[4.578065E-3,1.075588E-1,-1.03207685E-1,-1.2966652E-1,2.0593844E-1,-1.0603661E-1,-7.258556E-1,5.428082E-1,1.44257415E-2,1.0088775E-1,-1.3996509E-1,6.572636E-2,-8.070893E-2,-5.0582886E-1,1.0934513E-1,-5.999104E-2,2.0911779E-1,3.6806E-2,-3.1999443E-2,-1.4529957E-2,1.21568315E-1,-7.13151E-2,-5.8314037E-3,4.5955896E-2,-2.6031602E-2],"categories":[],"categories_nodes":[],"categories_segments":[],"categories_sizes":[],"default_left":[0,0,0,0,0,0,0,0,0,0,0,0,0,0,0,0,0,0,0,0,0,0,0,0,0],"id":27,"left_children":[1,-1,3,5,7,9,11,13,15,17,19,-1,-1,21,-1,-1,23,-1,-1,-1,-1,-1,-1,-1,-1],"loss_changes":[1.2177674E2,0E0,7.8667126E0,1.2370048E1,4.892199E0,5.9887705E0,4.2957783E0,1.6433184E1,6.0400367E0,1.3663462E1,5.4669886E0,0E0,0E0,9.003773E-1,0E0,0E0,4.621419E0,0E0,0E0,0E0,0E0,0E0,0E0,0E0,0E0],"parents":[2147483647,0,0,2,2,3,3,4,4,5,5,6,6,7,7,8,8,9,9,10,10,13,13,16,16],"right_children":[2,-1,4,6,8,10,12,14,16,18,20,-1,-1,22,-1,-1,24,-1,-1,-1,-1,-1,-1,-1,-1],"split_conditions":[1E0,1.075588E-1,1E0,1E0,1E0,1E0,1E0,1E0,1E0,1E0,1E0,6.572636E-2,-8.070893E-2,1E0,1.0934513E-1,-5.999104E-2,1E0,3.6806E-2,-3.1999443E-2,-1.4529957E-2,1.21568315E-1,-7.13151E-2,-5.8314037E-3,4.5955896E-2,-2.6031602E-2],"split_indices":[2,0,12,15,13,9,9,9,11,10,0,0,0,10,0,0,8,0,0,0,0,0,0,0,0],"split_type":[0,0,0,0,0,0,0,0,0,0,0,0,0,0,0,0,0,0,0,0,0,0,0,0,0],"sum_hessian":[1.052934E3,9.5456314E1,9.574777E2,8.825257E2,7.495198E1,8.5001337E2,3.2512352E1,2.6501566E1,4.8450417E1,1.1946175E2,7.3055164E2,1.4102256E0,3.1102127E1,9.152692E0,1.7348875E1,1.1158687E1,3.729173E1,7.3151405E1,4.6310345E1,7.2857745E2,1.9741375E0,5.849287E0,3.3034048E0,2.4331827E1,1.2959903E1],"tree_param":{"num_deleted":"0","num_feature":"16","num_nodes":"25","size_leaf_vector":"1"}},{"base_weights":[5.4227463E-3,8.59707E-1,-1.2841727E-2,9.019519E-2,4.1524936E-2,-3.0058768E-2,6.8399745E-1,-4.723668E-2,4.572324E-1,2.2821061E-1,1.0695958E0,-3.43949E-2,-6.2897813E-1,2.819375E-1,7.940584E-1,9.342072E-2,-1.1130924E-2,1.11323975E-1,3.166664E-2,-5.3664013E-3,6.9047E-2,-8.412535E-2,8.268306E-2,7.595443E-2,-3.1496554E-3,3.687231E-2,9.329506E-2,-3.0233337E-2,8.817965E-2],"categories":[],"categories_nodes":[],"categories_segments":[],"categories_sizes":[],"default_left":[0,0,0,0,0,0,0,0,0,0,0,0,0,0,0,0,0,0,0,0,0,0,0,0,0,0,0,0,0],"id":28,"left_children":[1,3,5,-1,-1,7,9,11,13,15,17,19,21,23,25,-1,27,-1,-1,-1,-1,-1,-1,-1,-1,-1,-1,-1,-1],"loss_changes":[1.5993139E1,2.8316498E-2,1.2064112E1,0E0,0E0,8.229782E0,4.0171986E0,7.0612907E0,1.7531633E0,2.1028135E0,7.01704E-2,1.3008499E1,7.005805E0,3.5528142E0,3.0056667E-1,0E0,2.9282176E0,0E0,0E0,0E0,0E0,0E0,0E0,0E0,0E0,0E0,0E0,0E0,0E0],"parents":[2147483647,0,0,1,1,2,2,5,5,6,6,7,7,8,8,9,9,10,10,11,11,12,12,13,13,14,14,16,16],"right_children":[2,4,6,-1,-1,8,10,12,14,16,18,20,22,24,26,-1,28,-1,-1,-1,-1,-1,-1,-1,-1,-1,-1,-1,-1],"split_conditions":[1E0,1E0,1E0,9.019519E-2,4.1524936E-2,1E0,3E0,1E1,1E0,2E0,8E0,8E0,1E0,3E0,3E0,9.342072E-2,1E0,1.11323975E-1,3.166664E-2,-5.3664013E-3,6.9047E-2,-8.412535E-2,8.268306E-2,7.595443E-2,-3.1496554E-3,3.687231E-2,9.329506E-2,-3.0233337E-2,8.817965E-2],"split_indices":[3,13,1,0,0,7,3,3,10,3,3,3,10,3,3,0,10,0,0,0,0,0,0,0,0,0,0,0,0],"split_type":[0,0,0,0,0,0,0,0,0,0,0,0,0,0,0,0,0,0,0,0,0,0,0,0,0,0,0,0,0],"sum_hessian":[1.0232933E3,2.0455557E1,1.0028377E3,1.7740065E1,2.715492E0,9.795915E2,2.3246233E1,9.4710724E2,3.248422E1,1.1383037E1,1.1863196E1,9.276879E2,1.9419327E1,2.2573366E1,9.910851E0,2.1469226E0,9.236114E0,1.0760891E1,1.1023054E0,9.0456775E2,2.312019E1,1.7316502E1,2.102825E0,8.38029E0,1.4193077E1,3.339354E0,6.571497E0,7.463517E0,1.7725968E0],"tree_param":{"num_deleted":"0","num_feature":"16","num_nodes":"29","size_leaf_vector":"1"}},{"base_weights":[1.3324927E-3,1.0648712E-1,-9.6622474E-2,-1.96001E-1,1.4589237E-1,1.01421975E-1,-2.508599E-1,2.0622675E-1,-5.574753E-1,-4.5538434E-1,1.1239833E0,-2.7773842E-1,2.3494406E-1,1.5530135E-1,7.343432E-1,-7.3718786E-1,1.1920557E-1,-5.0980467E-2,1.4226684E-1,1.2199687E-1,2.0869415E-2,9.5187694E-2,-2.8858349E-2,-8.774736E-2,6.1594587E-2,1.0371126E-2,8.188761E-2,9.3613826E-2,-5.0818395E-2,4.4418477E-2,-8.2876004E-2],"categories":[],"categories_nodes":[],"categories_segments":[],"categories_sizes":[],"default_left":[0,0,0,0,0,0,0,0,0,0,0,0,0,0,0,0,0,0,0,0,0,0,0,0,0,0,0,0,0,0,0],"id":29,"left_children":[1,-1,3,5,7,9,11,13,15,17,19,21,23,25,27,29,-1,-1,-1,-1,-1,-1,-1,-1,-1,-1,-1,-1,-1,-1,-1],"loss_changes":[1.0569496E2,0E0,2.2418262E1,1.0784325E1,1.1598804E1,5.938228E1,7.338379E0,6.6084814E0,7.685396E0,7.6399527E0,2.9732208E0,7.3191223E0,1.3146837E1,7.762973E0,5.9204807E0,2.5587816E0,0E0,0E0,0E0,0E0,0E0,0E0,0E0,0E0,0E0,0E0,0E0,0E0,0E0,0E0,0E0],"parents":[2147483647,0,0,2,2,3,3,4,4,5,5,6,6,7,7,8,8,9,9,10,10,11,11,12,12,13,13,14,14,15,15],"right_children":[2,-1,4,6,8,10,12,14,16,18,20,22,24,26,28,30,-1,-1,-1,-1,-1,-1,-1,-1,-1,-1,-1,-1,-1,-1,-1],"split_conditions":[1E0,1.0648712E-1,5E0,1E0,1E1,3E0,1E0,1E0,1E0,1E0,1E0,1E0,2E0,1E0,1E0,1E0,1.1920557E-1,-5.0980467E-2,1.4226684E-1,1.2199687E-1,2.0869415E-2,9.5187694E-2,-2.8858349E-2,-8.774736E-2,6.1594587E-2,1.0371126E-2,8.188761E-2,9.3613826E-2,-5.0818395E-2,4.4418477E-2,-8.2876004E-2],"split_indices":[2,0,3,11,3,3,13,12,6,4,10,3,3,6,6,11,0,0,0,0,0,0,0,0,0,0,0,0,0,0,0],"split_type":[0,0,0,0,0,0,0,0,0,0,0,0,0,0,0,0,0,0,0,0,0,0,0,0,0,0,0,0,0,0,0],"sum_hessian":[1.01256494E3,8.456254E1,9.280024E2,6.5839496E2,2.6960742E2,1.02396E2,5.5599896E2,2.4895872E2,2.0648705E1,6.665539E1,3.5740612E1,5.272553E2,2.8743689E1,2.2824364E2,2.071509E1,1.9249977E1,1.3987287E0,6.5486336E1,1.1690513E0,3.2047E1,3.6936128E0,3.8510575E0,5.2340424E2,7.0006623E0,2.1743027E1,2.1285162E2,1.5392009E1,1.8032991E1,2.6820986E0,1.107785E0,1.814219E1],"tree_param":{"num_deleted":"0","num_feature":"16","num_nodes":"31","size_leaf_vector":"1"}},{"base_weights":[1.5870048E-2,-1.3289593E-5,6.7111135E-1,7.013865E-1,-1.3532878E-2,2.3553903E-1,1.04984E0,7.730243E-2,1.9934801E-2,-4.1359812E-2,3.107962E-1,-1.4739316E-2,9.400722E-2,1.09237924E-1,3.1301454E-2,2.058735E-1,-8.297847E-2,1.1805245E-1,8.337779E-1,9.08847E-2,-3.745706E-1,-1.2468812E-2,5.347667E-2,-5.895393E-3,-6.621477E-2,-1.9648736E-2,6.490079E-2,1.2310616E-1,2.0711467E-2,8.074677E-2,-7.479062E-2],"categories":[],"categories_nodes":[],"categories_segments":[],"categories_sizes":[],"default_left":[0,0,0,0,0,0,0,0,0,0,0,0,0,0,0,0,0,0,0,0,0,0,0,0,0,0,0,0,0,0,0],"id":30,"left_children":[1,3,5,7,9,11,13,-1,-1,15,17,19,-1,-1,-1,21,23,25,27,-1,29,-1,-1,-1,-1,-1,-1,-1,-1,-1,-1],"loss_changes":[1.0584166E1,9.43441E0,3.723178E0,5.2255917E-1,8.8222275E0,2.215066E0,5.2537918E-2,0E0,0E0,9.276119E0,7.688239E0,3.72887E0,0E0,0E0,0E0,1.4193744E1,1.0687626E1,9.748751E0,4.8830566E0,0E0,4.1543174E0,0E0,0E0,0E0,0E0,0E0,0E0,0E0,0E0,0E0,0E0],"parents":[2147483647,0,0,1,1,2,2,3,3,4,4,5,5,6,6,9,9,10,10,11,11,15,15,16,16,17,17,18,18,20,20],"right_children":[2,4,6,8,10,12,14,-1,-1,16,18,20,-1,-1,-1,22,24,26,28,-1,30,-1,-1,-1,-1,-1,-1,-1,-1,-1,-1],"split_conditions":[1E0,1E0,3E0,1E0,1E0,1E0,8E0,7.730243E-2,1.9934801E-2,1E0,5E0,1E0,9.400722E-2,1.09237924E-1,3.1301454E-2,3E0,1E0,1E0,1E0,9.08847E-2,2E0,-1.2468812E-2,5.347667E-2,-5.895393E-3,-6.621477E-2,-1.9648736E-2,6.490079E-2,1.2310616E-1,2.0711467E-2,8.074677E-2,-7.479062E-2],"split_indices":[1,3,3,13,12,10,3,0,0,9,3,9,0,0,0,3,15,10,10,0,3,0,0,0,0,0,0,0,0,0,0],"split_type":[0,0,0,0,0,0,0,0,0,0,0,0,0,0,0,0,0,0,0,0,0,0,0,0,0,0,0,0,0,0,0],"sum_hessian":[1.0159819E3,9.929132E2,2.3068674E1,1.781447E1,9.7509875E2,1.1483512E1,1.1585161E1,1.5117522E1,2.6969478E0,8.9885114E2,7.6247574E1,9.195856E0,2.2876565E0,1.0496612E1,1.0885502E0,1.2894052E2,7.6991064E2,5.6609863E1,1.9637709E1,2.1504622E0,7.0453935E0,6.4616806E1,6.4323715E1,7.4030383E2,2.9606783E1,3.594554E1,2.0664324E1,1.1428163E1,8.209547E0,1.4119844E0,5.633409E0],"tree_param":{"num_deleted":"0","num_feature":"16","num_nodes":"31","size_leaf_vector":"1"}},{"base_weights":[7.097067E-3,1.0571118E-1,-8.0206916E-2,-1.8774122E-1,1.8368752E-1,-2.0916796E-1,3.8848928E-1,8.6429816E-1,1.1389868E-1,-4.4436017E-1,-1.6267768E-1,3.043297E-1,7.893939E-2,6.6745204E-1,1.096831E-1,1.6124189E-1,-4.722785E-1,-4.737736E-2,8.3663285E-2,5.325114E-3,-2.0023128E-2,6.263765E-2,2.1073455E-2,7.80811E-2,3.6520775E-2,1.1214381E-2,6.3454E-2,-6.745674E-2,3.0662373E-2],"categories":[],"categories_nodes":[],"categories_segments":[],"categories_sizes":[],"default_left":[0,0,0,0,0,0,0,0,0,0,0,0,0,0,0,0,0,0,0,0,0,0,0,0,0,0,0,0,0],"id":31,"left_children":[1,-1,3,5,7,9,11,13,15,17,19,21,-1,23,-1,25,27,-1,-1,-1,-1,-1,-1,-1,-1,-1,-1,-1,-1],"loss_changes":[9.265442E1,0E0,2.6517193E1,8.2737465E0,1.2758957E1,6.9298973E0,5.7419586E-1,4.1329002E-1,6.9214725E0,4.3569965E0,4.3593006E0,5.1839983E-1,0E0,2.6665688E-1,0E0,5.249814E0,3.1513586E0,0E0,0E0,0E0,0E0,0E0,0E0,0E0,0E0,0E0,0E0,0E0,0E0],"parents":[2147483647,0,0,2,2,3,3,4,4,5,5,6,6,7,7,8,8,9,9,10,10,11,11,13,13,15,15,16,16],"right_children":[2,-1,4,6,8,10,12,14,16,18,20,22,-1,24,-1,26,28,-1,-1,-1,-1,-1,-1,-1,-1,-1,-1,-1,-1],"split_conditions":[1E0,1.0571118E-1,5E0,1E0,1E0,2E0,1E0,7E0,1E1,1E0,1E0,1E0,7.893939E-2,6E0,1.096831E-1,8E0,1.1E1,-4.737736E-2,8.3663285E-2,5.325114E-3,-2.0023128E-2,6.263765E-2,2.1073455E-2,7.80811E-2,3.6520775E-2,1.1214381E-2,6.3454E-2,-6.745674E-2,3.0662373E-2],"split_indices":[2,0,3,7,9,3,12,3,3,1,9,9,0,3,0,3,3,0,0,0,0,0,0,0,0,0,0,0,0],"split_type":[0,0,0,0,0,0,0,0,0,0,0,0,0,0,0,0,0,0,0,0,0,0,0,0,0,0,0,0,0],"sum_hessian":[1.0088087E3,7.6586464E1,9.322222E2,6.6253467E2,2.6968756E2,6.393962E2,2.3138494E1,2.4022772E1,2.456648E2,1.0411664E2,5.3527954E2,2.057782E1,2.560675E0,1.5105693E1,8.917078E0,2.2797693E2,1.7687868E1,1.0239564E2,1.720997E0,7.924012E1,4.5603943E2,3.3519294E0,1.7225891E1,9.834001E0,5.2716928E0,2.0767091E2,2.0306023E1,1.4147556E1,3.5403128E0],"tree_param":{"num_deleted":"0","num_feature":"16","num_nodes":"29","size_leaf_vector":"1"}},{"base_weights":[-1.9402433E-3,1.0486145E-1,-8.190748E-2,-1.878725E-1,4.544983E-2,-2.069043E-1,3.564144E-1,2.5872739E-2,9.5533475E-2,-2.2370392E-1,3.6832315E-1,6.941063E-2,-1.2348855E-1,5.5346422E-2,-5.4952765E-1,-3.9172158E-2,-1.7929273E-2,1.5524598E-2,8.561481E-2,5.8130857E-2,-3.1046582E-2,2.6024652E-3,5.789816E-2,8.080224E-2,-7.108482E-2],"categories":[],"categories_nodes":[],"categories_segments":[],"categories_sizes":[],"default_left":[0,0,0,0,0,0,0,0,0,0,0,0,0,0,0,0,0,0,0,0,0,0,0,0,0],"id":32,"left_children":[1,-1,3,5,7,9,11,13,-1,15,17,-1,19,21,23,-1,-1,-1,-1,-1,-1,-1,-1,-1,-1],"loss_changes":[8.294639E1,0E0,1.2390291E1,5.2634163E0,7.411892E0,4.766344E0,2.8882768E0,6.9789066E0,0E0,3.4485455E0,1.33602E0,0E0,1.2336286E0,5.983137E0,4.9666286E0,0E0,0E0,0E0,0E0,0E0,0E0,0E0,0E0,0E0,0E0],"parents":[2147483647,0,0,2,2,3,3,4,4,5,5,6,6,7,7,9,9,10,10,12,12,13,13,14,14],"right_children":[2,-1,4,6,8,10,12,14,-1,16,18,-1,20,22,24,-1,-1,-1,-1,-1,-1,-1,-1,-1,-1],"split_conditions":[1E0,1.0486145E-1,4E0,1E0,1E0,1E0,3E0,1E1,9.5533475E-2,2E0,3E0,6.941063E-2,1E0,1E0,1E0,-3.9172158E-2,-1.7929273E-2,1.5524598E-2,8.561481E-2,5.8130857E-2,-3.1046582E-2,2.6024652E-3,5.789816E-2,8.080224E-2,-7.108482E-2],"split_indices":[2,0,3,7,1,1,3,3,0,3,3,0,9,8,11,0,0,0,0,0,0,0,0,0,0],"split_type":[0,0,0,0,0,0,0,0,0,0,0,0,0,0,0,0,0,0,0,0,0,0,0,0,0],"sum_hessian":[9.8531744E2,6.883941E1,9.16478E2,4.9999356E2,4.1648447E2,4.8370013E2,1.6293434E1,4.087189E2,7.7655644E0,4.705682E2,1.3131925E1,9.301751E0,6.9916825E0,3.8966306E2,1.9055862E1,9.674387E1,3.7382434E2,1.0057255E1,3.0746698E0,1.0237503E0,5.967932E0,3.6999435E2,1.966871E1,1.5981607E0,1.7457703E1],"tree_param":{"num_deleted":"0","num_feature":"16","num_nodes":"25","size_leaf_vector":"1"}},{"base_weights":[1.8290268E-2,1.0411306E-1,-5.380417E-2,-6.866289E-2,5.965836E-1,-1.281927E-1,7.322406E-2,1.9670577E-1,9.624841E-2,1.14971265E-1,-1.741683E-1,7.907312E-1,1.2365035E-3,9.8348476E-2,-5.3527974E-2,-3.8280345E-2,1.06007986E-1,7.718375E-2,-1.8463736E-2,6.0662895E-2,1.0482693E-1,4.55147E-3,-5.0876576E-2,-4.1869245E-2,8.680783E-2],"categories":[],"categories_nodes":[],"categories_segments":[],"categories_sizes":[],"default_left":[0,0,0,0,0,0,0,0,0,0,0,0,0,0,0,0,0,0,0,0,0,0,0,0,0],"id":33,"left_children":[1,-1,3,5,7,9,11,13,-1,15,17,19,21,-1,23,-1,-1,-1,-1,-1,-1,-1,-1,-1,-1],"loss_changes":[7.235408E1,0E0,8.901112E0,7.587975E0,2.8220139E0,7.090271E0,1.3729163E1,2.2361963E0,0E0,4.7998047E1,5.413906E0,5.1322746E-1,5.5012207E0,0E0,3.5144567E0,0E0,0E0,0E0,0E0,0E0,0E0,0E0,0E0,0E0,0E0],"parents":[2147483647,0,0,2,2,3,3,4,4,5,5,6,6,7,7,9,9,10,10,11,11,12,12,14,14],"right_children":[2,-1,4,6,8,10,12,14,-1,16,18,20,22,-1,24,-1,-1,-1,-1,-1,-1,-1,-1,-1,-1],"split_conditions":[1E0,1.0411306E-1,1E0,5E0,3E0,1E0,1E0,1E0,9.624841E-2,3E0,1E0,7E0,1E1,9.8348476E-2,1E0,-3.8280345E-2,1.06007986E-1,7.718375E-2,-1.8463736E-2,6.0662895E-2,1.0482693E-1,4.55147E-3,-5.0876576E-2,-4.1869245E-2,8.680783E-2],"split_indices":[2,0,1,3,3,11,9,11,0,3,3,3,3,0,10,0,0,0,0,0,0,0,0,0,0],"split_type":[0,0,0,0,0,0,0,0,0,0,0,0,0,0,0,0,0,0,0,0,0,0,0,0,0],"sum_hessian":[9.794311E2,6.3604248E1,9.1582684E2,8.962457E2,1.9581144E1,6.3142346E2,2.6482224E2,1.0090853E1,9.490292E0,1.0016299E2,5.312605E2,2.3236588E1,2.4158566E2,1.7278678E0,8.362985E0,6.5997856E1,3.416513E1,5.0188737E0,5.262416E2,1.5506901E1,7.7296867E0,2.231248E2,1.8460852E1,6.380541E0,1.982444E0],"tree_param":{"num_deleted":"0","num_feature":"16","num_nodes":"25","size_leaf_vector":"1"}},{"base_weights":[1.9566983E-3,1.0334175E-1,-6.5123685E-2,-8.014051E-2,5.7768387E-1,1.2459698E-1,-1.13757685E-1,3.9882177E-1,9.6897915E-2,3.1178802E-1,-1.5983434E-1,-1.1920828E-1,1.20793656E-1,1.0007943E-1,1.5963833E-1,5.676309E-2,1.8810032E-2,-2.8800873E-2,6.7645006E-2,-1.3277413E-2,2.9473586E-2,9.006842E-2,-1.0091621E-2],"categories":[],"categories_nodes":[],"categories_segments":[],"categories_sizes":[],"default_left":[0,0,0,0,0,0,0,0,0,0,0,0,0,0,0,0,0,0,0,0,0,0,0],"id":34,"left_children":[1,-1,3,5,7,9,11,13,-1,15,17,19,-1,-1,21,-1,-1,-1,-1,-1,-1,-1,-1],"loss_changes":[6.603256E1,0E0,8.696345E0,6.0470514E0,1.0537715E0,6.6573677E0,5.571703E0,2.1183372E0,0E0,2.272379E0,5.5455503E0,4.2577353E0,0E0,0E0,2.5069182E0,0E0,0E0,0E0,0E0,0E0,0E0,0E0,0E0],"parents":[2147483647,0,0,2,2,3,3,4,4,5,5,6,6,7,7,9,9,10,10,11,11,14,14],"right_children":[2,-1,4,6,8,10,12,14,-1,16,18,20,-1,-1,22,-1,-1,-1,-1,-1,-1,-1,-1],"split_conditions":[1E0,1.0334175E-1,1E0,1E0,1E0,1E0,1E0,1E0,9.6897915E-2,1E0,1E0,1E0,1.20793656E-1,1.0007943E-1,1E0,5.676309E-2,1.8810032E-2,-2.8800873E-2,6.7645006E-2,-1.3277413E-2,2.9473586E-2,9.006842E-2,-1.0091621E-2],"split_indices":[2,0,1,9,10,10,0,11,0,11,8,7,0,0,9,0,0,0,0,0,0,0,0],"split_type":[0,0,0,0,0,0,0,0,0,0,0,0,0,0,0,0,0,0,0,0,0,0,0],"sum_hessian":[9.5238214E2,5.72758E1,8.951064E2,8.755282E2,1.9578154E1,1.23101456E2,7.5242676E2,1.4822147E1,4.7560062E0,7.418341E1,4.891805E1,7.502426E2,2.184157E0,3.3092573E0,1.151289E1,2.3006401E1,5.1177006E1,4.298543E1,5.9326167E0,7.2709344E2,2.3149166E1,2.3558357E0,9.157054E0],"tree_param":{"num_deleted":"0","num_feature":"16","num_nodes":"23","size_leaf_vector":"1"}},{"base_weights":[8.478151E-3,1.0280142E-1,-5.3858627E-2,-7.010957E-2,6.7172825E-1,-1.4971456E-1,2.6560105E-2,3.5877153E-1,1.0203167E-1,-1.7332241E-1,7.119302E-1,6.112001E-2,-3.9341137E-1,1.6149615E-1,8.6282305E-2,-2.067831E-2,2.4205204E-2,8.327533E-3,1.5439783E-1,2.6562891E-3,5.6328136E-2,-6.9555934E-3,-7.46671E-2,9.0067975E-2,-9.201182E-3],"categories":[],"categories_nodes":[],"categories_segments":[],"categories_sizes":[],"default_left":[0,0,0,0,0,0,0,0,0,0,0,0,0,0,0,0,0,0,0,0,0,0,0,0,0],"id":35,"left_children":[1,-1,3,5,7,9,11,13,-1,15,17,19,21,23,-1,-1,-1,-1,-1,-1,-1,-1,-1,-1,-1],"loss_changes":[6.0838898E1,0E0,1.0685854E1,6.801949E0,1.8004551E0,9.980939E0,5.826546E0,1.0545778E0,0E0,6.616947E0,6.7336407E0,6.4100814E0,3.4410262E0,1.9304719E0,0E0,0E0,0E0,0E0,0E0,0E0,0E0,0E0,0E0,0E0,0E0],"parents":[2147483647,0,0,2,2,3,3,4,4,5,5,6,6,7,7,9,9,10,10,11,11,12,12,13,13],"right_children":[2,-1,4,6,8,10,12,14,-1,16,18,20,22,24,-1,-1,-1,-1,-1,-1,-1,-1,-1,-1,-1],"split_conditions":[1E0,1.0280142E-1,1E0,4E0,3E0,1E0,1E0,1E0,1.0203167E-1,1E0,2E0,1E0,1E0,1E0,8.6282305E-2,-2.067831E-2,2.4205204E-2,8.327533E-3,1.5439783E-1,2.6562891E-3,5.6328136E-2,-6.9555934E-3,-7.46671E-2,9.0067975E-2,-9.201182E-3],"split_indices":[2,0,1,3,3,4,15,10,0,6,3,6,10,11,0,0,0,0,0,0,0,0,0,0,0],"split_type":[0,0,0,0,0,0,0,0,0,0,0,0,0,0,0,0,0,0,0,0,0,0,0,0,0],"sum_hessian":[9.5539874E2,5.415683E1,9.0124194E2,8.823826E2,1.8859316E1,4.8360095E2,3.9878165E2,1.1006806E1,7.8525085E0,4.7148187E2,1.2119088E1,3.6925012E2,2.9531527E1,8.859699E0,2.1471076E0,4.3679758E2,3.468428E1,7.5299273E0,4.5891604E0,3.4646072E2,2.278941E1,1.6031416E1,1.3500112E1,1.6106035E0,7.249096E0],"tree_param":{"num_deleted":"0","num_feature":"16","num_nodes":"25","size_leaf_vector":"1"}},{"base_weights":[1.1289879E-3,1.0204553E-1,-5.4244578E-2,-1.1980176E-1,1.0318827E-1,1.4003128E-1,-1.6957301E-1,7.6459706E-1,4.567804E-2,-3.0605763E-1,8.595524E-1,-1.977382E-1,3.252009E-1,6.026008E-1,9.48469E-2,8.765958E-2,-4.6743748E-1,-1.9231291E-2,-9.157439E-2,9.5841825E-2,-5.0895656E-3,9.368724E-2,-2.0853331E-2,-6.425575E-2,6.3441105E-2,2.9066328E-2,1.0329312E-1,-9.766528E-3,1.7260343E-2,8.704226E-2,-6.232189E-2],"categories":[],"categories_nodes":[],"categories_segments":[],"categories_sizes":[],"default_left":[0,0,0,0,0,0,0,0,0,0,0,0,0,0,0,0,0,0,0,0,0,0,0,0,0,0,0,0,0,0,0],"id":36,"left_children":[1,-1,3,5,7,9,11,13,15,17,19,21,23,25,-1,27,29,-1,-1,-1,-1,-1,-1,-1,-1,-1,-1,-1,-1,-1,-1],"loss_changes":[5.310477E1,0E0,9.222559E0,8.17745E0,9.964881E0,3.2971455E1,7.4443693E0,5.29747E-2,5.2739134E0,4.2373953E0,3.5828724E0,6.340187E0,9.056177E0,1.5641212E0,0E0,3.5650687E0,4.4043975E0,0E0,0E0,0E0,0E0,0E0,0E0,0E0,0E0,0E0,0E0,0E0,0E0,0E0,0E0],"parents":[2147483647,0,0,2,2,3,3,4,4,5,5,6,6,7,7,8,8,9,9,10,10,11,11,12,12,13,13,15,15,16,16],"right_children":[2,-1,4,6,8,10,12,14,16,18,20,22,24,26,-1,28,30,-1,-1,-1,-1,-1,-1,-1,-1,-1,-1,-1,-1,-1,-1],"split_conditions":[1E0,1.0204553E-1,5E0,1E0,1E0,3E0,1E0,1E0,1E1,1E0,1E0,1E0,2E0,7E0,9.48469E-2,1E0,1E0,-1.9231291E-2,-9.157439E-2,9.5841825E-2,-5.0895656E-3,9.368724E-2,-2.0853331E-2,-6.425575E-2,6.3441105E-2,2.9066328E-2,1.0329312E-1,-9.766528E-3,1.7260343E-2,8.704226E-2,-6.232189E-2],"split_indices":[2,0,3,11,9,3,13,10,3,10,10,3,3,3,0,11,11,0,0,0,0,0,0,0,0,0,0,0,0,0,0],"split_type":[0,0,0,0,0,0,0,0,0,0,0,0,0,0,0,0,0,0,0,0,0,0,0,0,0,0,0,0,0,0,0],"sum_hessian":[9.388638E2,4.7476654E1,8.913871E2,6.294956E2,2.6189148E2,1.00904686E2,5.2859094E2,1.996658E1,2.4192491E2,6.264232E1,3.8262363E1,5.0068933E2,2.7901587E1,1.2888628E1,7.0779514E0,2.2439478E2,1.7530132E1,5.3901703E1,8.740617E0,3.4466904E1,3.7954597E0,3.9103372E0,4.96779E2,6.4951534E0,2.1406433E1,8.443531E0,4.4450974E0,7.047888E1,1.5391591E2,1.3498737E0,1.6180258E1],"tree_param":{"num_deleted":"0","num_feature":"16","num_nodes":"31","size_leaf_vector":"1"}},{"base_weights":[-3.4209392E-3,1.0146793E-1,-5.4493066E-2,-3.346985E-1,-1.8496646E-2,-3.6423022E-1,8.339957E-2,-4.558998E-2,3.159719E-1,3.669061E-1,-4.0954778E-1,-1.9704016E-2,-7.327151E-1,7.643238E-1,6.559484E-2,-6.647336E-2,7.7017225E-2,-5.919623E-2,-3.4041163E-2,1.9162238E-2,-6.895818E-3,4.2755507E-2,-8.0556415E-2,-2.3242477E-2,1.2333188E-1,-5.8867164E-2,3.0615423E-2],"categories":[],"categories_nodes":[],"categories_segments":[],"categories_sizes":[],"default_left":[0,0,0,0,0,0,0,0,0,0,0,0,0,0,0,0,0,0,0,0,0,0,0,0,0,0,0],"id":37,"left_children":[1,-1,3,5,7,9,-1,11,13,15,17,19,21,23,25,-1,-1,-1,-1,-1,-1,-1,-1,-1,-1,-1,-1],"loss_changes":[4.8374603E1,0E0,8.928725E0,3.7822275E0,7.1375165E0,3.430379E0,0E0,1.2934865E1,6.576208E0,3.1351748E0,9.800787E-1,7.326593E0,2.5761623E0,1.0130579E1,6.3137813E0,0E0,0E0,0E0,0E0,0E0,0E0,0E0,0E0,0E0,0E0,0E0,0E0],"parents":[2147483647,0,0,2,2,3,3,4,4,5,5,7,7,8,8,9,9,10,10,11,11,12,12,13,13,14,14],"right_children":[2,-1,4,6,8,10,-1,12,14,16,18,20,22,24,26,-1,-1,-1,-1,-1,-1,-1,-1,-1,-1,-1,-1],"split_conditions":[1E0,1.0146793E-1,2E0,1E0,1E0,1E0,8.339957E-2,1E0,1E0,1E0,1E0,1E0,1E0,1E0,1E0,-6.647336E-2,7.7017225E-2,-5.919623E-2,-3.4041163E-2,1.9162238E-2,-6.895818E-3,4.2755507E-2,-8.0556415E-2,-2.3242477E-2,1.2333188E-1,-5.8867164E-2,3.0615423E-2],"split_indices":[2,0,3,1,12,3,0,15,13,11,9,11,9,9,11,0,0,0,0,0,0,0,0,0,0,0,0],"split_type":[0,0,0,0,0,0,0,0,0,0,0,0,0,0,0,0,0,0,0,0,0,0,0,0,0,0,0],"sum_hessian":[9.2827924E2,4.3440693E1,8.8483856E2,9.978537E1,7.8505316E2,9.799742E1,1.7879521E0,7.2702484E2,5.802832E1,5.305422E0,9.269199E1,7.0162146E2,2.5403408E1,2.0057873E1,3.7970448E1,1.3088173E0,3.9966047E0,2.3397043E1,6.929495E1,1.3207205E2,5.695494E2,1.2131102E0,2.4190296E1,6.579332E0,1.347854E1,9.81871E0,2.8151737E1],"tree_param":{"num_deleted":"0","num_feature":"16","num_nodes":"27","size_leaf_vector":"1"}},{"base_weights":[2.193241E-2,1.00921825E-1,-2.4225209E-2,-8.817212E-2,1.3074248E-1,1.7984125E-1,-1.4084807E-1,7.463047E-1,7.147166E-2,-2.58885E-1,8.6241037E-1,-1.8578902E-2,-2.3787384E-1,5.8107907E-1,9.700246E-2,3.743361E-2,6.482793E-1,-1.6465027E-2,-7.778602E-2,9.7504675E-2,-1.2191399E-2,-1.6376786E-2,5.0514597E-3,-2.8427983E-2,1.4712683E-2,3.1206597E-2,9.806137E-2,-7.22377E-4,7.07817E-2,9.143368E-2,-5.9443187E-2],"categories":[],"categories_nodes":[],"categories_segments":[],"categories_sizes":[],"default_left":[0,0,0,0,0,0,0,0,0,0,0,0,0,0,0,0,0,0,0,0,0,0,0,0,0,0,0,0,0,0,0],"id":38,"left_children":[1,-1,3,5,7,9,11,13,15,17,19,21,23,25,-1,27,29,-1,-1,-1,-1,-1,-1,-1,-1,-1,-1,-1,-1,-1,-1],"loss_changes":[4.1866848E1,0E0,8.713755E0,8.809929E0,9.320311E0,3.0961817E1,6.1714373E0,2.6653385E-1,4.598604E0,2.9653563E0,4.597275E0,2.3297415E0,5.2261295E0,1.3505216E0,0E0,6.693173E0,4.861303E0,0E0,0E0,0E0,0E0,0E0,0E0,0E0,0E0,0E0,0E0,0E0,0E0,0E0,0E0],"parents":[2147483647,0,0,2,2,3,3,4,4,5,5,6,6,7,7,8,8,9,9,10,10,11,11,12,12,13,13,15,15,16,16],"right_children":[2,-1,4,6,8,10,12,14,16,18,20,22,24,26,-1,28,30,-1,-1,-1,-1,-1,-1,-1,-1,-1,-1,-1,-1,-1,-1],"split_conditions":[1E0,1.00921825E-1,5E0,1E0,1E0,3E0,3E0,7E0,1E0,1E0,1E0,2E0,1E0,1E0,9.700246E-2,1E0,1E0,-1.6465027E-2,-7.778602E-2,9.7504675E-2,-1.2191399E-2,-1.6376786E-2,5.0514597E-3,-2.8427983E-2,1.4712683E-2,3.1206597E-2,9.806137E-2,-7.22377E-4,7.07817E-2,9.143368E-2,-5.9443187E-2],"split_indices":[2,0,3,11,9,3,3,3,8,10,10,3,8,10,0,12,13,0,0,0,0,0,0,0,0,0,0,0,0,0,0],"split_type":[0,0,0,0,0,0,0,0,0,0,0,0,0,0,0,0,0,0,0,0,0,0,0,0,0,0,0,0,0,0,0],"sum_hessian":[9.171851E2,4.0033173E1,8.771519E2,6.2123315E2,2.5591881E2,1.0164628E2,5.1958685E2,2.1459358E1,2.3445944E2,6.2253265E1,3.9393017E1,2.3041536E2,2.891715E2,1.4412518E1,7.0468407E0,2.2240025E2,1.2059183E1,5.3801353E1,8.451909E0,3.5356583E1,4.036433E0,7.385359E1,1.5656177E2,2.5829907E2,3.0872429E1,9.677544E0,4.734974E0,2.0943785E2,1.2962412E1,1.0150301E1,1.9088821E0],"tree_param":{"num_deleted":"0","num_feature":"16","num_nodes":"31","size_leaf_vector":"1"}},{"base_weights":[-4.31211E-3,-2.2419663E-2,5.1570314E-1,-3.196344E-2,4.132568E-1,3.3267534E-1,8.560905E-1,5.6930256E-1,-3.8795028E-2,1.9604042E-2,9.137338E-2,8.259442E-2,1.9883068E-1,1.8359587E-2,9.412874E-2,1.1548275E-3,7.399086E-1,-5.7201855E-2,1.8171476E-1,-2.4183671E-1,8.361333E-2,7.1055196E-2,9.433015E-2,8.839799E-2,6.831857E-3,-3.852496E-3,-5.5585194E-2,5.4782378E-3,1.0853293E-1,8.4291115E-2,-6.0034323E-2,-1.7089816E-3,6.728258E-2],"categories":[],"categories_nodes":[],"categories_segments":[],"categories_sizes":[],"default_left":[0,0,0,0,0,0,0,0,0,0,0,0,0,0,0,0,0,0,0,0,0,0,0,0,0,0,0,0,0,0,0,0,0],"id":39,"left_children":[1,3,5,7,9,11,13,15,17,19,-1,-1,21,-1,-1,-1,23,25,27,29,-1,-1,31,-1,-1,-1,-1,-1,-1,-1,-1,-1,-1],"loss_changes":[8.48574E0,3.6332982E0,1.6044426E0,3.5254493E0,3.6730957E0,1.245755E0,3.9831638E-1,9.092908E-1,3.4371161E0,2.658961E0,0E0,0E0,9.0169454E-1,0E0,0E0,0E0,6.5274334E-1,7.2426205E0,7.4283714E0,4.19774E0,0E0,0E0,1.0554515E0,0E0,0E0,0E0,0E0,0E0,0E0,0E0,0E0,0E0,0E0],"parents":[2147483647,0,0,1,1,2,2,3,3,4,4,5,5,6,6,7,7,8,8,9,9,12,12,16,16,17,17,18,18,19,19,22,22],"right_children":[2,4,6,8,10,12,14,16,18,20,-1,-1,22,-1,-1,-1,24,26,28,30,-1,-1,32,-1,-1,-1,-1,-1,-1,-1,-1,-1,-1],"split_conditions":[1E0,1E0,1E0,1E0,3E0,1E0,1E0,1E0,1E0,1E0,9.137338E-2,8.259442E-2,1E0,1.8359587E-2,9.412874E-2,1.1548275E-3,1E0,1E0,6E0,1E0,8.361333E-2,7.1055196E-2,1E0,8.839799E-2,6.831857E-3,-3.852496E-3,-5.5585194E-2,5.4782378E-3,1.0853293E-1,8.4291115E-2,-6.0034323E-2,-1.7089816E-3,6.728258E-2],"split_indices":[7,1,10,3,3,9,9,11,12,10,0,0,11,0,0,0,15,15,3,9,0,0,12,0,0,0,0,0,0,0,0,0,0],"split_type":[0,0,0,0,0,0,0,0,0,0,0,0,0,0,0,0,0,0,0,0,0,0,0,0,0,0,0,0,0,0,0,0,0],"sum_hessian":[8.9895703E2,8.696323E2,2.9324749E1,8.518976E2,1.7734741E1,2.0356377E1,8.968372E0,8.645557E0,8.43252E2,1.0508442E1,7.226299E0,3.241029E0,1.7115349E1,1.3631806E0,7.605191E0,2.2751632E0,6.3703938E0,7.78969E2,6.428303E1,8.492948E0,2.0154943E0,1.9189707E0,1.5196378E1,4.9847937E0,1.3856003E0,7.5188446E2,2.7084509E1,5.7295284E1,6.9877477E0,1.7740271E0,6.7189207E0,1.3555924E1,1.640453E0],"tree_param":{"num_deleted":"0","num_feature":"16","num_nodes":"33","size_leaf_vector":"1"}},{"base_weights":[3.427731E-2,1.0035791E-1,-7.392329E-3,-1.838949E-2,5.1609015E-1,-2.2477869E-2,1.1631458E-1,3.2428682E-1,9.214722E-2,-3.3258684E-3,-2.406346E-1,8.5568644E-2,1.3802688E-1,-2.24829E-3,2.3994317E-2,-6.621314E-2,-2.3538047E-3,7.919988E-2,-6.404251E-3],"categories":[],"categories_nodes":[],"categories_segments":[],"categories_sizes":[],"default_left":[0,0,0,0,0,0,0,0,0,0,0,0,0,0,0,0,0,0,0],"id":40,"left_children":[1,-1,3,5,7,9,-1,11,-1,13,15,-1,17,-1,-1,-1,-1,-1,-1],"loss_changes":[3.6486057E1,0E0,5.000177E0,4.1323447E0,1.0907626E0,3.5426593E0,0E0,1.2353888E0,0E0,3.6435318E0,6.246275E0,0E0,1.5463554E0,0E0,0E0,0E0,0E0,0E0,0E0],"parents":[2147483647,0,0,2,2,3,3,4,4,5,5,7,7,9,9,10,10,12,12],"right_children":[2,-1,4,6,8,10,-1,12,-1,14,16,-1,18,-1,-1,-1,-1,-1,-1],"split_conditions":[1E0,1.0035791E-1,1E0,1E0,1E0,1E0,1.1631458E-1,1E0,9.214722E-2,1E0,1E0,8.5568644E-2,1E0,-2.24829E-3,2.3994317E-2,-6.621314E-2,-2.3538047E-3,7.919988E-2,-6.404251E-3],"split_indices":[2,0,1,0,10,15,0,9,0,6,12,0,11,0,0,0,0,0,0],"split_type":[0,0,0,0,0,0,0,0,0,0,0,0,0,0,0,0,0,0,0],"sum_hessian":[9.0214996E2,3.6232826E1,8.659171E2,8.4904553E2,1.687162E1,8.4709534E2,1.9501657E0,1.2674658E1,4.1969614E0,7.796638E2,6.743152E1,2.3567643E0,1.0317894E1,7.235899E2,5.607392E1,2.222716E1,4.5204357E1,1.7464122E0,8.571482E0],"tree_param":{"num_deleted":"0","num_feature":"16","num_nodes":"19","size_leaf_vector":"1"}},{"base_weights":[2.7234832E-2,9.724793E-3,5.244093E-1,2.0660084E-2,-5.1547617E-1,4.0124926E-1,7.463028E-1,3.7943362E-3,6.303087E-1,-8.118954E-2,1.0871732E-1,7.4148424E-2,1.4524823E-1,8.1111693E-1,2.1589875E-2,-5.1833736E-3,5.206396E-1,7.684461E-1,-8.126517E-2,-1.5794598E-2,4.4091687E-1,1.5071643E-2,9.082984E-2,-4.139654E-3,1.0197762E-2,7.596562E-2,-6.509197E-2,6.035158E-2,1.024695E-1,2.1021416E-2,5.710587E-2],"categories":[],"categories_nodes":[],"categories_segments":[],"categories_sizes":[],"default_left":[0,0,0,0,0,0,0,0,0,0,0,0,0,0,0,0,0,0,0,0,0,0,0,0,0,0,0,0,0,0,0],"id":41,"left_children":[1,3,5,7,9,11,13,15,17,-1,-1,-1,19,21,-1,23,25,27,-1,-1,29,-1,-1,-1,-1,-1,-1,-1,-1,-1,-1],"loss_changes":[7.855795E0,5.026061E0,5.395603E-1,8.803515E0,9.362546E0,1.8003109E0,1.6162062E-1,3.874272E0,5.2187347E0,0E0,0E0,0E0,1.3017149E0,4.0002155E-1,0E0,3.19069E0,4.4863796E0,2.9231358E-1,0E0,0E0,9.679103E-2,0E0,0E0,0E0,0E0,0E0,0E0,0E0,0E0,0E0,0E0],"parents":[2147483647,0,0,1,1,2,2,3,3,4,4,5,5,6,6,7,7,8,8,12,12,13,13,15,15,16,16,17,17,20,20],"right_children":[2,4,6,8,10,12,14,16,18,-1,-1,-1,20,22,-1,24,26,28,-1,-1,30,-1,-1,-1,-1,-1,-1,-1,-1,-1,-1],"split_conditions":[1E0,1E1,1E0,8E0,1E0,3E0,1E0,1E0,1E0,-8.118954E-2,1.0871732E-1,7.4148424E-2,4E0,1E0,2.1589875E-2,5E0,1E0,9E0,-8.126517E-2,-1.5794598E-2,5E0,1.5071643E-2,9.082984E-2,-4.139654E-3,1.0197762E-2,7.596562E-2,-6.509197E-2,6.035158E-2,1.024695E-1,2.1021416E-2,5.710587E-2],"split_indices":[7,3,10,3,10,3,8,4,4,0,0,0,3,9,0,3,6,3,0,0,3,0,0,0,0,0,0,0,0,0,0],"split_type":[0,0,0,0,0,0,0,0,0,0,0,0,0,0,0,0,0,0,0,0,0,0,0,0,0,0,0,0,0,0,0],"sum_hessian":[9.019756E2,8.722744E2,2.970116E1,8.5542413E2,1.6850256E1,2.0905848E1,8.795314E0,8.333753E2,2.2048855E1,1.4636546E1,2.2137098E0,8.161927E0,1.274392E1,7.365967E0,1.4293473E0,8.201196E2,1.3255677E1,2.05491E1,1.499754E0,6.5218606E0,6.2220597E0,1.2721176E0,6.093849E0,6.134341E2,2.0668552E2,1.1301565E1,1.9541129E0,1.45435705E1,6.0055304E0,3.1872623E0,3.0347972E0],"tree_param":{"num_deleted":"0","num_feature":"16","num_nodes":"31","size_leaf_vector":"1"}},{"base_weights":[1.31921135E-2,-4.60789E-3,5.52786E-1,-1.0372561E-2,1.154768E-1,4.6296838E-1,7.668297E-2,-1.9607665E-2,4.8529044E-1,7.62015E-2,3.135509E-1,-6.671544E-2,9.501086E-2,7.9880947E-1,-8.0861904E-2,6.6273466E-2,2.3229045E-1,4.3046102E-2,-7.426495E-3,6.317946E-2,5.0628684E-3,1.0634824E-1,-7.944995E-2,1.5471341E-2,3.612864E-2],"categories":[],"categories_nodes":[],"categories_segments":[],"categories_sizes":[],"default_left":[0,0,0,0,0,0,0,0,0,0,0,0,0,0,0,0,0,0,0,0,0,0,0,0,0],"id":42,"left_children":[1,3,5,7,-1,9,-1,11,13,-1,15,17,19,21,-1,-1,23,-1,-1,-1,-1,-1,-1,-1,-1],"loss_changes":[8.628258E0,5.829079E0,1.9649315E-1,3.978493E0,0E0,7.767706E-1,0E0,4.6075344E0,7.095317E0,0E0,3.2436728E-1,2.3010435E0,5.891323E0,6.453826E0,0E0,0E0,9.6355796E-2,0E0,0E0,0E0,0E0,0E0,0E0,0E0,0E0],"parents":[2147483647,0,0,1,1,2,2,3,3,5,5,7,7,8,8,10,10,11,11,12,12,13,13,16,16],"right_children":[2,4,6,8,-1,10,-1,12,14,-1,16,18,20,22,-1,-1,24,-1,-1,-1,-1,-1,-1,-1,-1],"split_conditions":[1E0,1E0,5E0,1E0,1.154768E-1,2E0,7.668297E-2,5E0,6E0,7.62015E-2,1E0,1E0,1E0,1E0,-8.0861904E-2,6.6273466E-2,4E0,4.3046102E-2,-7.426495E-3,6.317946E-2,5.0628684E-3,1.0634824E-1,-7.944995E-2,1.5471341E-2,3.612864E-2],"split_indices":[7,0,3,4,0,3,0,3,3,0,11,3,9,6,0,0,3,0,0,0,0,0,0,0,0],"split_type":[0,0,0,0,0,0,0,0,0,0,0,0,0,0,0,0,0,0,0,0,0,0,0,0,0],"sum_hessian":[8.9706506E2,8.693777E2,2.7687378E1,8.660625E2,3.3152E0,2.1731367E1,5.9560122E0,8.511642E2,1.4898294E1,5.8743815E0,1.5856985E1,6.0353253E2,2.4763165E2,1.2300482E1,2.597813E0,1.6426553E0,1.421433E1,8.18952E0,5.95343E2,1.7900255E1,2.297314E2,1.0833418E1,1.4670633E0,1.0249648E1,3.9646816E0],"tree_param":{"num_deleted":"0","num_feature":"16","num_nodes":"25","size_leaf_vector":"1"}},{"base_weights":[-9.337941E-3,9.971912E-2,-4.7133073E-2,-5.6412198E-2,4.04963E-1,-6.368071E-3,-1.3063231E-1,3.4560118E-2,8.77959E-2,1.0410098E-2,-5.21678E-1,-1.6783136E-1,4.2078066E-1,8.293638E-2,-2.10156E-1,-5.556931E-4,5.4644406E-2,-7.0365444E-2,2.0577198E-2,-2.0198757E-2,1.6339213E-2,3.1580172E-2,1.0194158E-1,-5.472176E-2,7.767921E-2],"categories":[],"categories_nodes":[],"categories_segments":[],"categories_sizes":[],"default_left":[0,0,0,0,0,0,0,0,0,0,0,0,0,0,0,0,0,0,0,0,0,0,0,0,0],"id":43,"left_children":[1,-1,3,5,7,9,11,13,-1,15,17,19,21,-1,23,-1,-1,-1,-1,-1,-1,-1,-1,-1,-1],"loss_changes":[3.4418472E1,0E0,3.6799755E0,3.1753113E0,3.0628402E0,4.430365E0,7.1334157E0,2.3026085E0,0E0,4.2536674E0,2.2837353E0,3.690363E0,1.063509E0,0E0,3.473679E0,0E0,0E0,0E0,0E0,0E0,0E0,0E0,0E0,0E0,0E0],"parents":[2147483647,0,0,2,2,3,3,4,4,5,5,6,6,7,7,9,9,10,10,11,11,12,12,14,14],"right_children":[2,-1,4,6,8,10,12,14,-1,16,18,20,22,-1,24,-1,-1,-1,-1,-1,-1,-1,-1,-1,-1],"split_conditions":[1E0,9.971912E-2,1E0,1E0,3E0,1E1,7E0,2E0,8.77959E-2,8E0,1.1E1,1E0,1E1,8.293638E-2,1E0,-5.556931E-4,5.4644406E-2,-7.0365444E-2,2.0577198E-2,-2.0198757E-2,1.6339213E-2,3.1580172E-2,1.0194158E-1,-5.472176E-2,7.767921E-2],"split_indices":[2,0,1,10,3,3,3,3,0,3,3,6,3,0,10,0,0,0,0,0,0,0,0,0,0],"split_type":[0,0,0,0,0,0,0,0,0,0,0,0,0,0,0,0,0,0,0,0,0,0,0,0,0],"sum_hessian":[9.025162E2,3.174428E1,8.7077185E2,8.5411664E2,1.6655243E1,5.1079233E2,3.433243E2,9.942411E0,6.7128305E0,4.9563455E2,1.5157753E1,3.222786E2,2.1045712E1,1.7781488E0,8.164263E0,4.8225897E2,1.3375583E1,1.2150849E1,3.0069044E0,2.9250525E2,2.9773346E1,1.9205328E1,1.8403834E0,6.4179544E0,1.7463084E0],"tree_param":{"num_deleted":"0","num_feature":"16","num_nodes":"25","size_leaf_vector":"1"}},{"base_weights":[8.979773E-3,9.924192E-2,-2.5888491E-2,-2.3522915E-1,-2.3882269E-4,-5.568491E-1,-1.3295475E-1,2.4702235E-1,-3.6237918E-2,-8.6871274E-2,-3.6240807E-1,-9.244892E-2,-4.669229E-1,1.0303905E0,7.969662E-2,-6.864903E-2,3.7744182E-1,-2.4147406E-2,-7.6642185E-2,-1.0785337E-2,3.8511224E-2,-6.980426E-2,-3.2412812E-2,1.9213298E-1,5.5689212E-2,-2.3782614E-3,5.9549965E-2,-4.484044E-3,-7.221868E-2,1.17497385E-1,1.0004753E-2],"categories":[],"categories_nodes":[],"categories_segments":[],"categories_sizes":[],"default_left":[0,0,0,0,0,0,0,0,0,0,0,0,0,0,0,0,0,0,0,0,0,0,0,0,0,0,0,0,0,0,0],"id":44,"left_children":[1,-1,3,5,7,9,11,13,15,-1,17,19,21,23,25,27,29,-1,-1,-1,-1,-1,-1,-1,-1,-1,-1,-1,-1,-1,-1],"loss_changes":[3.0595137E1,0E0,4.6280665E0,3.0205784E0,6.85258E0,1.0425963E0,9.402205E-1,1.2742417E1,9.036049E0,0E0,5.724516E-1,5.276449E-1,2.5102973E-2,6.159094E0,4.375052E0,9.677362E0,1.0718128E1,0E0,0E0,0E0,0E0,0E0,0E0,0E0,0E0,0E0,0E0,0E0,0E0,0E0,0E0],"parents":[2147483647,0,0,2,2,3,3,4,4,5,5,6,6,7,7,8,8,10,10,11,11,12,12,13,13,14,14,15,15,16,16],"right_children":[2,-1,4,6,8,10,12,14,16,-1,18,20,22,24,26,28,30,-1,-1,-1,-1,-1,-1,-1,-1,-1,-1,-1,-1,-1,-1],"split_conditions":[1E0,9.924192E-2,2E0,1E0,1E0,1E0,1E0,1E0,1E0,-8.6871274E-2,1E0,1E0,1E0,3E0,5E0,1E0,1E0,-2.4147406E-2,-7.6642185E-2,-1.0785337E-2,3.8511224E-2,-6.980426E-2,-3.2412812E-2,1.9213298E-1,5.5689212E-2,-2.3782614E-3,5.9549965E-2,-4.484044E-3,-7.221868E-2,1.17497385E-1,1.0004753E-2],"split_indices":[2,0,3,9,9,11,12,11,12,0,12,15,13,3,3,15,15,0,0,0,0,0,0,0,0,0,0,0,0,0,0],"split_type":[0,0,0,0,0,0,0,0,0,0,0,0,0,0,0,0,0,0,0,0,0,0,0,0,0,0,0,0,0,0,0],"sum_hessian":[8.904759E2,2.9550793E1,8.609251E2,9.307985E1,7.678453E2,2.1385307E1,7.169454E1,9.683924E1,6.71006E2,6.8810544E0,1.4504252E1,6.507825E1,6.6162934E0,1.6136248E1,8.0702995E1,6.230269E2,4.797907E1,1.2392482E1,2.1117709E0,6.3794613E1,1.2836335E0,1.0417476E0,5.574546E0,4.5386143E0,1.1597634E1,6.80124E1,1.2690601E1,6.021587E2,2.0868227E1,1.15464115E1,3.643266E1],"tree_param":{"num_deleted":"0","num_feature":"16","num_nodes":"31","size_leaf_vector":"1"}},{"base_weights":[-4.161058E-3,9.863811E-2,-3.5970174E-2,-8.209513E-3,-3.6241618E-1,-1.3647752E-2,1.2610548E0,8.744701E-2,-4.3884426E-1,-8.198038E-2,6.5717086E-2,9.793666E-4,1.9973461E-1,-4.8965877E-1,7.3027045E-2,1.5483009E-2,-1.2981996E-2,8.663023E-3,-3.763357E-2,-8.957853E-2,-3.4330986E-2],"categories":[],"categories_nodes":[],"categories_segments":[],"categories_sizes":[],"default_left":[0,0,0,0,0,0,0,0,0,0,0,0,0,0,0,0,0,0,0,0,0],"id":45,"left_children":[1,-1,3,5,7,9,11,-1,13,15,17,-1,-1,19,-1,-1,-1,-1,-1,-1,-1],"loss_changes":[2.7971272E1,0E0,7.7906213E0,5.495211E0,6.7532253E0,4.296348E0,3.1096153E0,0E0,4.1670084E0,4.841752E0,3.4218612E0,0E0,0E0,3.3805294E0,0E0,0E0,0E0,0E0,0E0,0E0,0E0],"parents":[2147483647,0,0,2,2,3,3,4,4,5,5,6,6,8,8,9,9,10,10,13,13],"right_children":[2,-1,4,6,8,10,12,-1,14,16,18,-1,-1,20,-1,-1,-1,-1,-1,-1,-1],"split_conditions":[1E0,9.863811E-2,1E0,1E0,1E0,4E0,9E0,8.744701E-2,1E0,1E0,1E1,9.793666E-4,1.9973461E-1,1E0,7.3027045E-2,1.5483009E-2,-1.2981996E-2,8.663023E-3,-3.763357E-2,-8.957853E-2,-3.4330986E-2],"split_indices":[2,0,15,13,9,3,3,0,7,11,3,0,0,11,0,0,0,0,0,0,0],"split_type":[0,0,0,0,0,0,0,0,0,0,0,0,0,0,0,0,0,0,0,0,0],"sum_hessian":[8.856178E2,2.6621132E1,8.589967E2,7.926183E2,6.6378365E1,7.902218E2,2.3965056E0,3.2552218E0,6.3123142E1,4.2460587E2,3.6561594E2,1.2631673E0,1.1333383E0,6.1050797E1,2.0723453E0,7.098532E1,3.5362054E2,3.49868E2,1.57479315E1,1.4815647E1,4.623515E1],"tree_param":{"num_deleted":"0","num_feature":"16","num_nodes":"21","size_leaf_vector":"1"}},{"base_weights":[1.2395711E-2,9.81044E-2,-1.6058298E-2,-2.0287512E-2,1.0955568E-1,1.5026224E-1,-4.8192937E-2,8.9750744E-2,1.4726251E-1,-6.888439E-2,2.188417E-1,2.83052E-2,-2.3783438E-2,8.224594E-2,-7.5456947E-3,9.08552E-2,-2.986048E-3],"categories":[],"categories_nodes":[],"categories_segments":[],"categories_sizes":[],"default_left":[0,0,0,0,0,0,0,0,0,0,0,0,0,0,0,0,0],"id":46,"left_children":[1,-1,3,5,-1,7,9,11,-1,13,15,-1,-1,-1,-1,-1,-1],"loss_changes":[2.4372887E1,0E0,4.062907E0,4.0869465E0,0E0,9.532296E0,4.0896506E0,7.448098E0,0E0,4.0760307E0,9.164854E0,0E0,0E0,0E0,0E0,0E0,0E0],"parents":[2147483647,0,0,2,2,3,3,5,5,6,6,7,7,9,9,10,10],"right_children":[2,-1,4,6,-1,8,10,12,-1,14,16,-1,-1,-1,-1,-1,-1],"split_conditions":[1E0,9.81044E-2,1E0,1E0,1.0955568E-1,1E0,1E0,1E0,1.4726251E-1,1E0,1E0,2.83052E-2,-2.3783438E-2,8.224594E-2,-7.5456947E-3,9.08552E-2,-2.986048E-3],"split_indices":[2,0,0,9,0,6,12,10,0,3,13,0,0,0,0,0,0],"split_type":[0,0,0,0,0,0,0,0,0,0,0,0,0,0,0,0,0],"sum_hessian":[8.82724E2,2.4234673E1,8.584894E2,8.5621356E2,2.2757733E0,1.1977842E2,7.364352E2,1.1555833E2,4.220092E0,6.8416406E2,5.227111E1,7.2760056E1,4.279827E1,4.0992913E0,6.8006476E2,1.3149963E1,3.9121147E1],"tree_param":{"num_deleted":"0","num_feature":"16","num_nodes":"17","size_leaf_vector":"1"}},{"base_weights":[-1.4705269E-2,9.760133E-2,-4.158919E-2,-5.2480016E-2,4.6652138E-1,-6.1859503E-2,2.4539205E-1,8.993306E-2,3.225274E-1,-6.470661E-2,8.932979E-2,4.4984207E-2,6.828948E-1,1.8865995E-1,7.915068E-2,-2.4727187E-3,-1.227861E-2,7.693835E-2,-1.0794765E-2,8.55761E-3,7.653452E-2,1.3682747E-2,3.4079604E-2],"categories":[],"categories_nodes":[],"categories_segments":[],"categories_sizes":[],"default_left":[0,0,0,0,0,0,0,0,0,0,0,0,0,0,0,0,0,0,0,0,0,0,0],"id":47,"left_children":[1,-1,3,5,7,9,11,-1,13,15,-1,17,19,21,-1,-1,-1,-1,-1,-1,-1,-1,-1],"loss_changes":[2.3615639E1,0E0,4.7985015E0,2.3774276E0,8.4447455E-1,2.289081E0,2.2499986E0,0E0,8.0613875E-1,1.8986404E0,0E0,2.1780407E0,3.33498E-1,5.708438E-2,0E0,0E0,0E0,0E0,0E0,0E0,0E0,0E0,0E0],"parents":[2147483647,0,0,2,2,3,3,4,4,5,5,6,6,8,8,9,9,11,11,12,12,13,13],"right_children":[2,-1,4,6,8,10,12,-1,14,16,-1,18,20,22,-1,-1,-1,-1,-1,-1,-1,-1,-1],"split_conditions":[1E0,9.760133E-2,1E0,1E0,1E0,1E0,1E0,8.993306E-2,1E0,1E0,8.932979E-2,1E0,1E0,1E0,7.915068E-2,-2.4727187E-3,-1.227861E-2,7.693835E-2,-1.0794765E-2,8.55761E-3,7.653452E-2,1.3682747E-2,3.4079604E-2],"split_indices":[2,0,1,7,9,0,10,0,6,10,0,9,9,10,0,0,0,0,0,0,0,0,0],"split_type":[0,0,0,0,0,0,0,0,0,0,0,0,0,0,0,0,0,0,0,0,0,0,0],"sum_hessian":[8.841354E2,2.2425156E1,8.617102E2,8.445058E2,1.72044E1,8.1949365E2,2.5012136E1,2.9854085E0,1.4218989E1,8.179877E2,1.5059797E0,1.7910606E1,7.10153E0,1.2152427E1,2.0665627E0,4.8533185E2,3.3265582E2,2.4194405E0,1.5491165E1,1.1085382E0,5.992992E0,1.0480959E1,1.6714681E0],"tree_param":{"num_deleted":"0","num_feature":"16","num_nodes":"23","size_leaf_vector":"1"}},{"base_weights":[-2.2398584E-2,9.691505E-2,-4.6843965E-2,-9.638863E-2,7.673188E-2,-1.1500018E-1,7.232169E-1,4.2037092E-2,5.669038E-1,-1.1935151E-1,9.319637E-2,2.0761916E-1,1.2577827E0,-9.6896174E-4,7.474234E-1,9.940244E-2,-3.6482148E-2,-1.2951279E-2,3.3922207E-2,3.8172517E-2,-3.5772424E-2,1.4129089E-1,4.4166006E-2,1.3616906E-3,-8.683968E-2,1.1187609E-1,-7.798972E-2,-5.172165E-2,8.631279E-2],"categories":[],"categories_nodes":[],"categories_segments":[],"categories_sizes":[],"default_left":[0,0,0,0,0,0,0,0,0,0,0,0,0,0,0,0,0,0,0,0,0,0,0,0,0,0,0,0,0],"id":48,"left_children":[1,-1,3,5,7,9,11,13,15,17,-1,19,21,23,25,-1,27,-1,-1,-1,-1,-1,-1,-1,-1,-1,-1,-1,-1],"loss_changes":[2.1142752E1,0E0,5.214039E0,9.349695E0,4.1245704E0,2.8211856E0,3.494318E0,6.944222E0,4.171178E0,2.8084145E0,0E0,9.3712765E-1,1.978693E-1,2.7539723E0,8.332946E0,0E0,3.739527E0,0E0,0E0,0E0,0E0,0E0,0E0,0E0,0E0,0E0,0E0,0E0,0E0],"parents":[2147483647,0,0,2,2,3,3,4,4,5,5,6,6,7,7,8,8,9,9,11,11,12,12,13,13,14,14,16,16],"right_children":[2,-1,4,6,8,10,12,14,16,18,-1,20,22,24,26,-1,28,-1,-1,-1,-1,-1,-1,-1,-1,-1,-1,-1,-1],"split_conditions":[1E0,9.691505E-2,5E0,1E0,1E0,1E0,2E0,1E0,1E0,1E0,9.319637E-2,1E0,1E0,1E0,1E0,9.940244E-2,6E0,-1.2951279E-2,3.3922207E-2,3.8172517E-2,-3.5772424E-2,1.4129089E-1,4.4166006E-2,1.3616906E-3,-8.683968E-2,1.1187609E-1,-7.798972E-2,-5.172165E-2,8.631279E-2],"split_indices":[2,0,3,4,12,0,3,6,10,1,0,6,10,4,15,0,3,0,0,0,0,0,0,0,0,0,0,0,0],"split_type":[0,0,0,0,0,0,0,0,0,0,0,0,0,0,0,0,0,0,0,0,0,0,0,0,0,0,0,0,0],"sum_hessian":[8.693962E2,1.9988314E1,8.4940784E2,6.0647626E2,2.4293158E2,5.938508E2,1.26254425E1,2.2788728E2,1.5044298E1,5.9227527E2,1.5755793E0,7.1334743E0,5.4919677E0,2.1573308E2,1.2154206E1,8.429719E0,6.614579E0,5.801379E2,1.2137376E1,5.70219E0,1.4312847E0,4.0003486E0,1.4916191E0,2.1313351E2,2.5995548E0,9.992283E0,2.1619236E0,4.587939E0,2.0266404E0],"tree_param":{"num_deleted":"0","num_feature":"16","num_nodes":"29","size_leaf_vector":"1"}},{"base_weights":[1.7150225E-2,9.642967E-2,-4.9241115E-3,-2.357917E-2,2.1856582E-1,-9.148902E-2,5.5889796E-2,9.514846E-1,-8.745555E-2,-1.14980325E-1,8.4481525E-1,3.103051E-2,7.9994667E-1,1.6798434E-1,1.9230248E-1,-3.4689155E-1,4.2346475E-1,-1.2972906E-2,2.4113705E-2,1.7282383E-1,1.0900625E-3,5.925137E-3,-6.407986E-2,1.9641577E-1,-1.6479408E-2,3.7115097E-2,-7.659674E-2,2.493071E-2,-4.454532E-2,7.429372E-2,-8.5068606E-2],"categories":[],"categories_nodes":[],"categories_segments":[],"categories_sizes":[],"default_left":[0,0,0,0,0,0,0,0,0,0,0,0,0,0,0,0,0,0,0,0,0,0,0,0,0,0,0,0,0,0,0],"id":49,"left_children":[1,-1,3,5,7,9,11,13,15,17,19,21,23,25,-1,27,29,-1,-1,-1,-1,-1,-1,-1,-1,-1,-1,-1,-1,-1,-1],"loss_changes":[1.8035194E1,0E0,3.5228882E0,4.212615E0,1.468437E1,9.352051E0,6.6315293E0,1.4337273E1,6.3556414E0,2.191835E0,7.6563606E0,6.6600304E0,1.3345884E1,2.5151892E0,0E0,1.9688518E0,7.2364593E0,0E0,0E0,0E0,0E0,0E0,0E0,0E0,0E0,0E0,0E0,0E0,0E0,0E0,0E0],"parents":[2147483647,0,0,2,2,3,3,4,4,5,5,6,6,7,7,8,8,9,9,10,10,11,11,12,12,13,13,15,15,16,16],"right_children":[2,-1,4,6,8,10,12,14,16,18,20,22,24,26,-1,28,30,-1,-1,-1,-1,-1,-1,-1,-1,-1,-1,-1,-1,-1,-1],"split_conditions":[1E0,9.642967E-2,1E0,4E0,3E0,1E0,1E0,1E0,5E0,1E0,1E0,1E1,1E0,1E0,1.9230248E-1,1E0,1E0,-1.2972906E-2,2.4113705E-2,1.7282383E-1,1.0900625E-3,5.925137E-3,-6.407986E-2,1.9641577E-1,-1.6479408E-2,3.7115097E-2,-7.659674E-2,2.493071E-2,-4.454532E-2,7.429372E-2,-8.5068606E-2],"split_indices":[2,0,6,3,3,4,13,10,3,7,10,3,10,4,0,11,13,0,0,0,0,0,0,0,0,0,0,0,0,0,0],"split_type":[0,0,0,0,0,0,0,0,0,0,0,0,0,0,0,0,0,0,0,0,0,0,0,0,0,0,0,0,0,0,0],"sum_hessian":[8.6138586E2,1.8646214E1,8.427396E2,7.7863983E2,6.40998E1,4.1977325E2,3.5886658E2,1.8259422E1,4.584038E1,4.103549E2,9.41836E0,3.4827234E2,1.0594236E1,1.075718E1,7.5022416E0,3.0615458E1,1.5224925E1,3.9464618E2,1.57087145E1,4.052659E0,5.3657007E0,3.351076E2,1.3164729E1,4.3313684E0,6.262868E0,9.3301525E0,1.4270277E0,4.1262636E0,2.6489193E1,1.2506133E1,2.7187917E0],"tree_param":{"num_deleted":"0","num_feature":"16","num_nodes":"31","size_leaf_vector":"1"}},{"base_weights":[1.5241369E-2,9.5766224E-2,-4.8811645E-3,-1.8718265E-1,1.7272176E-2,-5.4107124E-1,-7.973006E-2,2.510643E-1,-1.6176771E-2,-6.3013494E-2,-2.2743814E-1,3.1102377E-1,-1.1895263E-1,1.7599934E-1,1.6588081E-1,-4.2450078E-2,3.431532E-1,5.0736605E-3,-7.33362E-2,1.0787967E-2,5.5714965E-2,-1.401369E-2,2.6383985E-2,4.445779E-2,-3.2729786E-2,-1.29488455E-2,3.2896472E-3,1.10383265E-1,9.712386E-3],"categories":[],"categories_nodes":[],"categories_segments":[],"categories_sizes":[],"default_left":[0,0,0,0,0,0,0,0,0,0,0,0,0,0,0,0,0,0,0,0,0,0,0,0,0,0,0,0,0],"id":50,"left_children":[1,-1,3,5,7,9,11,13,15,-1,17,19,21,23,-1,25,27,-1,-1,-1,-1,-1,-1,-1,-1,-1,-1,-1,-1],"loss_changes":[1.6201864E1,0E0,3.3845239E0,3.409749E0,5.8491426E0,4.4262314E-1,1.1225086E0,9.600397E0,6.196675E0,0E0,9.1034293E-1,2.7676105E-1,5.647915E-1,1.2310317E1,0E0,4.0118947E0,8.26348E0,0E0,0E0,0E0,0E0,0E0,0E0,0E0,0E0,0E0,0E0,0E0,0E0],"parents":[2147483647,0,0,2,2,3,3,4,4,5,5,6,6,7,7,8,8,10,10,11,11,12,12,13,13,15,15,16,16],"right_children":[2,-1,4,6,8,10,12,14,16,-1,18,20,22,24,-1,26,28,-1,-1,-1,-1,-1,-1,-1,-1,-1,-1,-1,-1],"split_conditions":[1E0,9.5766224E-2,2E0,1E0,1E0,1E0,1E0,1E0,1E0,-6.3013494E-2,1E0,1E0,1E0,1E0,1.6588081E-1,4E0,1E0,5.0736605E-3,-7.33362E-2,1.0787967E-2,5.5714965E-2,-1.401369E-2,2.6383985E-2,4.445779E-2,-3.2729786E-2,-1.29488455E-2,3.2896472E-3,1.10383265E-1,9.712386E-3],"split_indices":[2,0,3,9,9,10,3,8,12,0,12,10,7,10,0,3,13,0,0,0,0,0,0,0,0,0,0,0,0],"split_type":[0,0,0,0,0,0,0,0,0,0,0,0,0,0,0,0,0,0,0,0,0,0,0,0,0,0,0,0,0],"sum_hessian":[8.531066E2,1.686067E1,8.36246E2,8.980278E1,7.464432E2,1.9976372E1,6.982641E1,9.261347E1,6.538297E2,1.4772279E1,5.204094E0,5.737454E0,6.408896E1,8.8993126E1,3.6203477E0,6.101024E2,4.3727295E1,3.93836E0,1.265734E0,3.9311364E0,1.8063176E0,6.1328842E1,2.7601137E0,5.8103535E1,3.0889591E1,2.827539E2,3.2734854E2,9.834419E0,3.3892876E1],"tree_param":{"num_deleted":"0","num_feature":"16","num_nodes":"29","size_leaf_vector":"1"}},{"base_weights":[2.8278768E-2,1.9920608E-2,4.4140464E-1,1.6397323E-2,9.407551E-2,1.5518996E-1,8.3147323E-1,6.263412E-2,-5.1243596E-2,8.6410366E-2,-4.9468208E-2,9.463536E-2,3.4369044E-2,7.642322E-2,-4.303299E-1,-7.76545E-2,7.726573E-2,7.343909E-2,-2.8402945E-1,2.5434002E-2,4.440661E-3,8.378678E-2,-6.716151E-2,-1.1020492E-2,3.2983452E-2,-6.225695E-2,7.075241E-2],"categories":[],"categories_nodes":[],"categories_segments":[],"categories_sizes":[],"default_left":[0,0,0,0,0,0,0,0,0,0,0,0,0,0,0,0,0,0,0,0,0,0,0,0,0,0,0],"id":51,"left_children":[1,3,5,7,-1,9,11,13,15,-1,17,-1,-1,19,21,23,-1,-1,25,-1,-1,-1,-1,-1,-1,-1,-1],"loss_changes":[2.8954732E0,2.662666E0,1.7277994E0,2.5781777E0,0E0,1.6129193E0,5.632353E-2,3.3602202E0,7.346113E0,0E0,1.9265767E0,0E0,0E0,2.7059572E0,4.684572E0,4.351753E0,0E0,0E0,3.0966883E0,0E0,0E0,0E0,0E0,0E0,0E0,0E0,0E0],"parents":[2147483647,0,0,1,1,2,2,3,3,5,5,6,6,7,7,8,8,10,10,13,13,14,14,15,15,18,18],"right_children":[2,4,6,8,-1,10,12,14,16,-1,18,-1,-1,20,22,24,-1,-1,26,-1,-1,-1,-1,-1,-1,-1,-1],"split_conditions":[1E0,1E0,3E0,1E0,9.407551E-2,1E0,1E0,1E1,8E0,8.6410366E-2,1E0,9.463536E-2,3.4369044E-2,1E0,1E0,1E0,7.726573E-2,7.343909E-2,1E0,2.5434002E-2,4.440661E-3,8.378678E-2,-6.716151E-2,-1.1020492E-2,3.2983452E-2,-6.225695E-2,7.075241E-2],"split_indices":[1,0,3,10,0,11,10,3,3,0,9,0,0,9,11,12,0,0,10,0,0,0,0,0,0,0,0],"split_type":[0,0,0,0,0,0,0,0,0,0,0,0,0,0,0,0,0,0,0,0,0,0,0,0,0,0,0],"sum_hessian":[8.400918E2,8.2445996E2,1.5631848E1,8.2233136E2,2.1285877E0,9.82244E0,5.8094087E0,4.8849118E2,3.338402E2,1.4785887E0,8.343851E0,3.9411058E0,1.8683031E0,4.7602097E2,1.2470208E1,3.2434866E2,9.49155E0,1.4309556E0,6.9128957E0,7.1538185E1,4.044828E2,1.5980929E0,1.0872115E1,3.0103165E2,2.3316996E1,5.4308133E0,1.482082E0],"tree_param":{"num_deleted":"0","num_feature":"16","num_nodes":"27","size_leaf_vector":"1"}},{"base_weights":[2.4090204E-3,9.512807E-2,-1.6189687E-2,-2.661722E-2,3.2301202E-1,-2.9758878E-2,8.947256E-2,1.1488565E-1,6.1643083E-2,-1.7975631E-1,-1.1257364E-2,1.8330999E-2,6.28934E-2,-5.530427E-2,-5.975449E-3,1.396087E-2,-3.3457768E-3,4.176883E-2,-8.471E-3],"categories":[],"categories_nodes":[],"categories_segments":[],"categories_sizes":[],"default_left":[0,0,0,0,0,0,0,0,0,0,0,0,0,0,0,0,0,0,0],"id":52,"left_children":[1,-1,3,5,7,9,-1,11,-1,13,15,17,-1,-1,-1,-1,-1,-1,-1],"loss_changes":[1.5039016E1,0E0,2.9652803E0,2.3767471E0,1.4563184E0,2.2462115E0,0E0,7.756104E-1,0E0,3.948616E0,2.4236476E0,6.271711E-1,0E0,0E0,0E0,0E0,0E0,0E0,0E0],"parents":[2147483647,0,0,2,2,3,3,4,4,5,5,7,7,9,9,10,10,11,11],"right_children":[2,-1,4,6,8,10,-1,12,-1,14,16,18,-1,-1,-1,-1,-1,-1,-1],"split_conditions":[1E0,9.512807E-2,1E0,1E0,4E0,2E0,8.947256E-2,1E0,6.1643083E-2,1E0,1E0,1E0,6.28934E-2,-5.530427E-2,-5.975449E-3,1.396087E-2,-3.3457768E-3,4.176883E-2,-8.471E-3],"split_indices":[2,0,7,0,3,3,0,12,0,9,9,9,0,0,0,0,0,0,0],"split_type":[0,0,0,0,0,0,0,0,0,0,0,0,0,0,0,0,0,0,0],"sum_hessian":[8.5030304E2,1.5382236E1,8.3492084E2,8.1091376E2,2.4007086E1,8.0912244E2,1.7913013E0,1.4858952E1,9.148135E0,8.7886215E1,7.212362E2,1.3381196E1,1.4777548E0,2.0502142E1,6.738407E1,9.183943E1,6.293968E2,2.118169E0,1.1263027E1],"tree_param":{"num_deleted":"0","num_feature":"16","num_nodes":"19","size_leaf_vector":"1"}},{"base_weights":[1.270593E-2,9.444388E-2,-3.931583E-3,-1.4748637E-2,3.776534E-1,-6.548982E-3,-4.39931E-1,2.6545158E-1,6.839844E-2,-1.8763907E-2,4.4304806E-1,-6.223229E-1,5.812776E-2,1.9457214E-1,6.4376004E-2,-2.9313145E-3,5.7166208E-2,5.8500536E-2,-1.0248705E-1,-7.931601E-2,9.749572E-3,4.412457E-2,1.2755445E-2],"categories":[],"categories_nodes":[],"categories_segments":[],"categories_sizes":[],"default_left":[0,0,0,0,0,0,0,0,0,0,0,0,0,0,0,0,0,0,0,0,0,0,0],"id":53,"left_children":[1,-1,3,5,7,9,11,13,-1,15,17,19,-1,21,-1,-1,-1,-1,-1,-1,-1,-1,-1],"loss_changes":[1.325016E1,0E0,3.4749205E0,2.8500407E0,6.160996E-1,4.4228625E0,3.2427182E0,3.740307E-1,0E0,4.8970866E0,5.0385695E0,1.7505469E0,0E0,2.2665757E-1,0E0,0E0,0E0,0E0,0E0,0E0,0E0,0E0,0E0],"parents":[2147483647,0,0,2,2,3,3,4,4,5,5,6,6,7,7,9,9,10,10,11,11,13,13],"right_children":[2,-1,4,6,8,10,12,14,-1,16,18,20,-1,22,-1,-1,-1,-1,-1,-1,-1,-1,-1],"split_conditions":[1E0,9.444388E-2,1E0,1E1,5E0,8E0,1E0,1E0,6.839844E-2,1E0,1E0,1.1E1,5.812776E-2,1E0,6.4376004E-2,-2.9313145E-3,5.7166208E-2,5.8500536E-2,-1.0248705E-1,-7.931601E-2,9.749572E-3,4.412457E-2,1.2755445E-2],"split_indices":[2,0,7,3,3,3,10,13,0,4,4,3,0,9,0,0,0,0,0,0,0,0,0],"split_type":[0,0,0,0,0,0,0,0,0,0,0,0,0,0,0,0,0,0,0,0,0,0,0],"sum_hessian":[8.5351495E2,1.3995128E1,8.395198E2,8.1731226E2,2.2207567E1,8.028447E2,1.4467482E1,1.7620241E1,4.587327E0,7.825424E2,2.0302322E1,1.260651E1,1.8609712E0,1.611523E1,1.50501E0,7.6973975E2,1.2802714E1,1.9060518E1,1.2418034E0,1.0106103E1,2.5004077E0,2.249912E0,1.3865318E1],"tree_param":{"num_deleted":"0","num_feature":"16","num_nodes":"23","size_leaf_vector":"1"}},{"base_weights":[-8.861887E-3,9.372639E-2,-2.4529185E-2,-4.0185597E-2,1.7168E-1,-3.716308E-2,-8.365645E-2,8.0177E-1,-1.1122849E-1,-4.1047193E-2,1.2324319E-1,5.4470323E-2,1.7935477E-1,-3.8154003E-1,4.6819174E-1,-3.5574276E-3,-3.948498E-2,9.92655E-2,-1.3651979E-2,1.10704385E-1,-4.9145155E-2,1.14518516E-1,-8.887353E-2],"categories":[],"categories_nodes":[],"categories_segments":[],"categories_sizes":[],"default_left":[0,0,0,0,0,0,0,0,0,0,0,0,0,0,0,0,0,0,0,0,0,0,0],"id":54,"left_children":[1,-1,3,5,7,9,-1,11,13,15,-1,17,-1,19,21,-1,-1,-1,-1,-1,-1,-1,-1],"loss_changes":[1.2492861E1,0E0,2.5520227E0,1.8177685E0,1.1036832E1,3.8290951E0,0E0,1.4097094E1,6.9545736E0,1.4669911E0,0E0,2.2774193E0,0E0,5.460788E0,1.40728E1,0E0,0E0,0E0,0E0,0E0,0E0,0E0,0E0],"parents":[2147483647,0,0,2,2,3,3,4,4,5,5,7,7,8,8,9,9,11,11,13,13,14,14],"right_children":[2,-1,4,6,8,10,-1,12,14,16,-1,18,-1,20,22,-1,-1,-1,-1,-1,-1,-1,-1],"split_conditions":[1E0,9.372639E-2,1E0,1.4E1,3E0,1.1E1,-8.365645E-2,1E0,5E0,1E1,1.2324319E-1,1E0,1.7935477E-1,1E0,1E0,-3.5574276E-3,-3.948498E-2,9.92655E-2,-1.3651979E-2,1.10704385E-1,-4.9145155E-2,1.14518516E-1,-8.887353E-2],"split_indices":[2,0,6,3,3,3,0,10,3,3,0,9,0,9,15,0,0,0,0,0,0,0,0],"split_type":[0,0,0,0,0,0,0,0,0,0,0,0,0,0,0,0,0,0,0,0,0,0,0],"sum_hessian":[8.402382E2,1.2729003E1,8.275092E2,7.670945E2,6.0414715E1,7.652368E2,1.8576595E0,1.8152248E1,4.2262466E1,7.6386755E2,1.3692566E0,1.0953649E1,7.1985993E0,2.905106E1,1.3211407E1,7.533152E2,1.0552364E1,1.1427583E0,9.81089E0,1.373738E0,2.767732E1,8.918076E0,4.2933307E0],"tree_param":{"num_deleted":"0","num_feature":"16","num_nodes":"23","size_leaf_vector":"1"}},{"base_weights":[2.4527721E-2,9.2968516E-2,1.0700103E-2,2.4949837E-2,-1.6245416E-1,-1.0008125E-2,1.1156111E-1,-8.031639E-2,2.9928021E-2,2.7584794E-1,-6.420334E-2,-1.0995127E-1,2.113691E-1,-4.2138082E-1,2.3899549E-1,-9.291966E-3,7.645922E-2,8.170397E-3,-1.7599689E-2,-2.5338138E-2,1.13085166E-1,2.642024E-2,-4.2356916E-2,-5.75453E-2,9.13456E-2,-6.1921425E-2,4.3536108E-2],"categories":[],"categories_nodes":[],"categories_segments":[],"categories_sizes":[],"default_left":[0,0,0,0,0,0,0,0,0,0,0,0,0,0,0,0,0,0,0,0,0,0,0,0,0,0,0],"id":55,"left_children":[1,-1,3,5,7,9,11,-1,13,15,17,19,21,23,25,-1,-1,-1,-1,-1,-1,-1,-1,-1,-1,-1,-1],"loss_changes":[1.0466259E1,0E0,2.0407238E0,2.31291E0,7.7767763E0,8.45921E0,4.879222E0,0E0,4.7558E0,1.5756799E1,7.499116E0,1.2545431E1,5.202789E0,3.8123748E0,6.0592175E0,0E0,0E0,0E0,0E0,0E0,0E0,0E0,0E0,0E0,0E0,0E0,0E0],"parents":[2147483647,0,0,2,2,3,3,4,4,5,5,6,6,8,8,9,9,10,10,11,11,12,12,13,13,14,14],"right_children":[2,-1,4,6,8,10,12,-1,14,16,18,20,22,24,26,-1,-1,-1,-1,-1,-1,-1,-1,-1,-1,-1,-1],"split_conditions":[1E0,9.2968516E-2,1E0,5E0,1E0,1E0,1E0,-8.031639E-2,1E0,3E0,3E0,8E0,1E1,6E0,2E0,-9.291966E-3,7.645922E-2,8.170397E-3,-1.7599689E-2,-2.5338138E-2,1.13085166E-1,2.642024E-2,-4.2356916E-2,-5.75453E-2,9.13456E-2,-6.1921425E-2,4.3536108E-2],"split_indices":[2,0,15,3,11,11,11,0,13,3,3,3,3,3,3,0,0,0,0,0,0,0,0,0,0,0,0],"split_type":[0,0,0,0,0,0,0,0,0,0,0,0,0,0,0,0,0,0,0,0,0,0,0,0,0,0,0],"sum_hessian":[8.3601373E2,1.1582584E1,8.2443115E2,7.6253424E2,6.189687E1,5.4389307E2,2.1864117E2,1.3560416E1,4.8336452E1,8.6030396E1,4.578627E2,6.7882385E1,1.5075879E2,1.4981256E1,3.3355198E1,4.949516E1,3.6535236E1,1.9874278E2,2.591199E2,6.1561947E1,6.320436E0,1.3971683E2,1.104196E1,1.3941024E1,1.0402321E0,5.8098874E0,2.754531E1],"tree_param":{"num_deleted":"0","num_feature":"16","num_nodes":"27","size_leaf_vector":"1"}},{"base_weights":[-1.510162E-3,9.20118E-2,-1.4141652E-2,-2.2005758E-1,1.2302479E-2,3.4773317E-1,-2.6224262E-1,2.1833684E-1,-1.756887E-2,5.242619E-2,